<?xml version="1.0"?>
<MethodSetup Method="BDT::BDTG">
  <GeneralInfo>
    <Info name="TMVA Release" value="4.2.1 [262657]"/>
    <Info name="ROOT Release" value="6.08/07 [395271]"/>
    <Info name="Creator" value="ikhvastu"/>
    <Info name="Date" value="Thu Feb 22 11:43:30 2018"/>
    <Info name="Host" value="Linux vocms0302.cern.ch 2.6.32-696.1.1.el6.x86_64 #1 SMP Wed Apr 12 08:44:28 CEST 2017 x86_64 x86_64 x86_64 GNU/Linux"/>
    <Info name="Dir" value="/storage_mnt/storage/user/ikhvastu/Work/ttVcsMeasure/checkLeptonMVAvar/MVAtrainings/2016MC/ele_relISO0p3_removeElectronMVAcuts_addTriggerEmuOnLoose"/>
    <Info name="Training events" value="200000"/>
    <Info name="TrainingTime" value="7.30865893e+02"/>
    <Info name="AnalysisType" value="Classification"/>
  </GeneralInfo>
  <Options>
    <Option name="V" modified="Yes">False</Option>
    <Option name="VerbosityLevel" modified="No">Default</Option>
    <Option name="VarTransform" modified="No">None</Option>
    <Option name="H" modified="Yes">False</Option>
    <Option name="CreateMVAPdfs" modified="No">False</Option>
    <Option name="IgnoreNegWeightsInTraining" modified="Yes">True</Option>
    <Option name="NTrees" modified="Yes">1000</Option>
    <Option name="MaxDepth" modified="Yes">4</Option>
    <Option name="MinNodeSize" modified="Yes">2.5%</Option>
    <Option name="nCuts" modified="Yes">200</Option>
    <Option name="BoostType" modified="Yes">Grad</Option>
    <Option name="AdaBoostR2Loss" modified="No">quadratic</Option>
    <Option name="UseBaggedBoost" modified="Yes">True</Option>
    <Option name="Shrinkage" modified="Yes">1.000000e-02</Option>
    <Option name="AdaBoostBeta" modified="No">5.000000e-01</Option>
    <Option name="UseRandomisedTrees" modified="No">False</Option>
    <Option name="UseNvars" modified="No">3</Option>
    <Option name="UsePoissonNvars" modified="No">True</Option>
    <Option name="BaggedSampleFraction" modified="Yes">6.000000e-01</Option>
    <Option name="UseYesNoLeaf" modified="No">True</Option>
    <Option name="NegWeightTreatment" modified="No">pray</Option>
    <Option name="Css" modified="No">1.000000e+00</Option>
    <Option name="Cts_sb" modified="No">1.000000e+00</Option>
    <Option name="Ctb_ss" modified="No">1.000000e+00</Option>
    <Option name="Cbb" modified="No">1.000000e+00</Option>
    <Option name="NodePurityLimit" modified="No">5.000000e-01</Option>
    <Option name="SeparationType" modified="No">giniindex</Option>
    <Option name="RegressionLossFunctionBDTG" modified="No">huber</Option>
    <Option name="HuberQuantile" modified="No">7.000000e-01</Option>
    <Option name="DoBoostMonitor" modified="No">False</Option>
    <Option name="UseFisherCuts" modified="No">False</Option>
    <Option name="MinLinCorrForFisher" modified="No">8.000000e-01</Option>
    <Option name="UseExclusiveVars" modified="No">False</Option>
    <Option name="DoPreselection" modified="No">False</Option>
    <Option name="SigToBkgFraction" modified="No">1.000000e+00</Option>
    <Option name="PruneMethod" modified="No">nopruning</Option>
    <Option name="PruneStrength" modified="No">0.000000e+00</Option>
    <Option name="PruningValFraction" modified="No">5.000000e-01</Option>
    <Option name="SkipNormalization" modified="No">False</Option>
    <Option name="nEventsMin" modified="No">0</Option>
    <Option name="UseBaggedGrad" modified="No">False</Option>
    <Option name="GradBaggingFraction" modified="No">6.000000e-01</Option>
    <Option name="UseNTrainEvents" modified="No">0</Option>
    <Option name="NNodesMax" modified="No">0</Option>
  </Options>
  <Variables NVar="11">
    <Variable VarIndex="0" Expression="pt" Label="pt" Title="pt" Unit="" Internal="pt" Type="F" Min="7.00003719e+00" Max="1.69279395e+03"/>
    <Variable VarIndex="1" Expression="eta" Label="eta" Title="eta" Unit="" Internal="eta" Type="F" Min="-2.49949908e+00" Max="2.49982381e+00"/>
    <Variable VarIndex="2" Expression="trackMult" Label="trackMult" Title="trackMult" Unit="" Internal="trackMult" Type="I" Min="0.00000000e+00" Max="3.70000000e+01"/>
    <Variable VarIndex="3" Expression="miniIsoCharged" Label="miniIsoCharged" Title="miniIsoCharged" Unit="" Internal="miniIsoCharged" Type="F" Min="0.00000000e+00" Max="3.99998337e-01"/>
    <Variable VarIndex="4" Expression="miniIsoNeutral" Label="miniIsoNeutral" Title="miniIsoNeutral" Unit="" Internal="miniIsoNeutral" Type="F" Min="0.00000000e+00" Max="3.99978787e-01"/>
    <Variable VarIndex="5" Expression="ptrel" Label="ptrel" Title="ptrel" Unit="" Internal="ptrel" Type="F" Min="0.00000000e+00" Max="8.27057251e+02"/>
    <Variable VarIndex="6" Expression="min(ptratio,1.5)" Label="min(ptratio,1.5)" Title="min(ptratio,1.5)" Unit="" Internal="min_ptratio,1.5_" Type="F" Min="1.63729284e-02" Max="1.50000000e+00"/>
    <Variable VarIndex="7" Expression="relIso0p3" Label="relIso0p3" Title="relIso0p3" Unit="" Internal="relIso0p3" Type="F" Min="0.00000000e+00" Max="2.06721706e+01"/>
    <Variable VarIndex="8" Expression="max(jetbtagCSV,0)" Label="max(jetbtagCSV,0)" Title="max(jetbtagCSV,0)" Unit="" Internal="max_jetbtagCSV,0_" Type="F" Min="0.00000000e+00" Max="9.99998808e-01"/>
    <Variable VarIndex="9" Expression="sip3d" Label="sip3d" Title="sip3d" Unit="" Internal="sip3d" Type="F" Min="9.46832879e-04" Max="7.99996948e+00"/>
    <Variable VarIndex="10" Expression="eleMVA" Label="eleMVA" Title="eleMVA" Unit="" Internal="eleMVA" Type="F" Min="-9.99661207e-01" Max="9.98546660e-01"/>
  </Variables>
  <Spectators NSpec="0"/>
  <Classes NClass="2">
    <Class Name="Signal" Index="0"/>
    <Class Name="Background" Index="1"/>
  </Classes>
  <Transformations NTransformations="0"/>
  <MVAPdfs/>
  <Weights NTrees="1000" AnalysisType="1">
    <BinaryTree type="DecisionTree" boostWeight="1.0000000000000000e+00" itree="0">
      <Node pos="s" depth="0" NCoef="0" IVar="7" Cut="7.6133675873279572e-02" cType="1" res="4.9899262376129627e-04" rms="4.9999976158142090e-01" purity="5.0049901008605957e-01" nType="0">
        <Node pos="l" depth="1" NCoef="0" IVar="8" Cut="5.4726052284240723e-01" cType="1" res="3.7990164756774902e-01" rms="3.2507652044296265e-01" purity="8.7990158796310425e-01" nType="0">
          <Node pos="l" depth="2" NCoef="0" IVar="0" Cut="1.5389290809631348e+01" cType="1" res="4.2145356535911560e-01" rms="2.6902955770492554e-01" purity="9.2145353555679321e-01" nType="0">
            <Node pos="l" depth="3" NCoef="0" IVar="-1" Cut="0.0000000000000000e+00" cType="1" res="-1.0764400940388441e-03" rms="4.9707007408142090e-01" purity="4.4595047831535339e-01" nType="-99"/>
            <Node pos="r" depth="3" NCoef="0" IVar="6" Cut="8.2271659374237061e-01" cType="1" res="4.5301011204719543e-01" rms="2.1161718666553497e-01" purity="9.5301014184951782e-01" nType="0">
              <Node pos="l" depth="4" NCoef="0" IVar="-1" Cut="0.0000000000000000e+00" cType="1" res="4.9830842763185501e-03" rms="4.1869339346885681e-01" purity="7.7330541610717773e-01" nType="-99"/>
              <Node pos="r" depth="4" NCoef="0" IVar="-1" Cut="0.0000000000000000e+00" cType="1" res="8.2056149840354919e-03" rms="1.6135773062705994e-01" purity="9.7324800491333008e-01" nType="-99"/>
            </Node>
          </Node>
          <Node pos="r" depth="2" NCoef="0" IVar="-1" Cut="0.0000000000000000e+00" cType="1" res="-4.6260878443717957e-03" rms="4.4835779070854187e-01" purity="2.7869635820388794e-01" nType="-99"/>
        </Node>
        <Node pos="r" depth="1" NCoef="0" IVar="5" Cut="7.5705199241638184e+00" cType="1" res="-3.6888921260833740e-01" rms="3.3752146363258362e-01" purity="1.3111078739166260e-01" nType="0">
          <Node pos="l" depth="2" NCoef="0" IVar="6" Cut="7.7816104888916016e-01" cType="1" res="-4.2489477992057800e-01" rms="2.6356104016304016e-01" purity="7.5105212628841400e-02" nType="0">
            <Node pos="l" depth="3" NCoef="0" IVar="8" Cut="3.7313362956047058e-01" cType="1" res="-4.5380857586860657e-01" rms="2.0989942550659180e-01" purity="4.6191412955522537e-02" nType="0">
              <Node pos="l" depth="4" NCoef="0" IVar="-1" Cut="0.0000000000000000e+00" cType="1" res="-8.8707534596323967e-03" rms="2.9752597212791443e-01" purity="9.8156392574310303e-02" nType="-99"/>
              <Node pos="r" depth="4" NCoef="0" IVar="-1" Cut="0.0000000000000000e+00" cType="1" res="-1.0986672714352608e-02" rms="1.2212926894426346e-01" purity="1.5144927427172661e-02" nType="-99"/>
            </Node>
            <Node pos="r" depth="3" NCoef="0" IVar="-1" Cut="0.0000000000000000e+00" cType="1" res="-3.2675457186996937e-03" rms="4.7396945953369141e-01" purity="3.4077394008636475e-01" nType="-99"/>
          </Node>
          <Node pos="r" depth="2" NCoef="0" IVar="-1" Cut="0.0000000000000000e+00" cType="1" res="2.4856713134795427e-03" rms="4.8243865370750427e-01" purity="6.3135045766830444e-01" nType="-99"/>
        </Node>
      </Node>
    </BinaryTree>
    <BinaryTree type="DecisionTree" boostWeight="1.0000000000000000e+00" itree="1">
      <Node pos="s" depth="0" NCoef="0" IVar="7" Cut="7.6133675873279572e-02" cType="1" res="-6.1110396927688271e-05" rms="4.9644899368286133e-01" purity="4.9942687153816223e-01" nType="0">
        <Node pos="l" depth="1" NCoef="0" IVar="8" Cut="4.8755940794944763e-01" cType="1" res="3.7584674358367920e-01" rms="3.2482573390007019e-01" purity="8.7910860776901245e-01" nType="0">
          <Node pos="l" depth="2" NCoef="0" IVar="0" Cut="1.5394065856933594e+01" cType="1" res="4.2153510451316833e-01" rms="2.6249000430107117e-01" purity="9.2520350217819214e-01" nType="0">
            <Node pos="l" depth="3" NCoef="0" IVar="-1" Cut="0.0000000000000000e+00" cType="1" res="-5.3539912914857268e-04" rms="4.9923658370971680e-01" purity="4.7238048911094666e-01" nType="-99"/>
            <Node pos="r" depth="3" NCoef="0" IVar="10" Cut="5.8057296276092529e-01" cType="1" res="4.5137524604797363e-01" rms="2.0646679401397705e-01" purity="9.5532345771789551e-01" nType="0">
              <Node pos="l" depth="4" NCoef="0" IVar="-1" Cut="0.0000000000000000e+00" cType="1" res="3.8877322804182768e-03" rms="4.5181804895401001e-01" purity="7.1374708414077759e-01" nType="-99"/>
              <Node pos="r" depth="4" NCoef="0" IVar="-1" Cut="0.0000000000000000e+00" cType="1" res="8.1109488382935524e-03" rms="1.6622933745384216e-01" purity="9.7151845693588257e-01" nType="-99"/>
            </Node>
          </Node>
          <Node pos="r" depth="2" NCoef="0" IVar="-1" Cut="0.0000000000000000e+00" cType="1" res="-3.5507474094629288e-03" rms="4.6823865175247192e-01" purity="3.2610425353050232e-01" nType="-99"/>
        </Node>
        <Node pos="r" depth="1" NCoef="0" IVar="5" Cut="8.3161201477050781e+00" cType="1" res="-3.6223724484443665e-01" rms="3.3903723955154419e-01" purity="1.3361465930938721e-01" nType="0">
          <Node pos="l" depth="2" NCoef="0" IVar="6" Cut="7.8552675247192383e-01" cType="1" res="-4.1410991549491882e-01" rms="2.7268701791763306e-01" purity="8.1234648823738098e-02" nType="0">
            <Node pos="l" depth="3" NCoef="0" IVar="8" Cut="3.5323324799537659e-01" cType="1" res="-4.4378495216369629e-01" rms="2.2026047110557556e-01" purity="5.1232699304819107e-02" nType="0">
              <Node pos="l" depth="4" NCoef="0" IVar="-1" Cut="0.0000000000000000e+00" cType="1" res="-8.4566352888941765e-03" rms="3.1409782171249390e-01" purity="1.1107502877712250e-01" nType="-99"/>
              <Node pos="r" depth="4" NCoef="0" IVar="-1" Cut="0.0000000000000000e+00" cType="1" res="-1.0821155272424221e-02" rms="1.2871979176998138e-01" purity="1.6882190480828285e-02" nType="-99"/>
            </Node>
            <Node pos="r" depth="3" NCoef="0" IVar="-1" Cut="0.0000000000000000e+00" cType="1" res="-2.5832606479525566e-03" rms="4.8315921425819397e-01" purity="3.7149691581726074e-01" nType="-99"/>
          </Node>
          <Node pos="r" depth="2" NCoef="0" IVar="-1" Cut="0.0000000000000000e+00" cType="1" res="3.5205206368118525e-03" rms="4.6241593360900879e-01" purity="6.9018805027008057e-01" nType="-99"/>
        </Node>
      </Node>
    </BinaryTree>
    <BinaryTree type="DecisionTree" boostWeight="1.0000000000000000e+00" itree="2">
      <Node pos="s" depth="0" NCoef="0" IVar="7" Cut="8.4987640380859375e-02" cType="1" res="-8.3241437096148729e-04" rms="4.9295276403427124e-01" purity="4.9816036224365234e-01" nType="0">
        <Node pos="l" depth="1" NCoef="0" IVar="8" Cut="5.1243138313293457e-01" cType="1" res="3.6237952113151550e-01" rms="3.3528053760528564e-01" purity="8.6861932277679443e-01" nType="0">
          <Node pos="l" depth="2" NCoef="0" IVar="0" Cut="1.7025861740112305e+01" cType="1" res="4.0914997458457947e-01" rms="2.7565506100654602e-01" purity="9.1623425483703613e-01" nType="0">
            <Node pos="l" depth="3" NCoef="0" IVar="-1" Cut="0.0000000000000000e+00" cType="1" res="-3.4910585964098573e-04" rms="4.9896380305290222e-01" purity="4.8255395889282227e-01" nType="-99"/>
            <Node pos="r" depth="3" NCoef="0" IVar="10" Cut="5.7104063034057617e-01" cType="1" res="4.4649586081504822e-01" rms="2.0860393345355988e-01" purity="9.5417690277099609e-01" nType="0">
              <Node pos="l" depth="4" NCoef="0" IVar="-1" Cut="0.0000000000000000e+00" cType="1" res="3.7633921019732952e-03" rms="4.5410060882568359e-01" purity="7.0833230018615723e-01" nType="-99"/>
              <Node pos="r" depth="4" NCoef="0" IVar="-1" Cut="0.0000000000000000e+00" cType="1" res="8.0330530181527138e-03" rms="1.6821843385696411e-01" purity="9.7073161602020264e-01" nType="-99"/>
            </Node>
          </Node>
          <Node pos="r" depth="2" NCoef="0" IVar="-1" Cut="0.0000000000000000e+00" cType="1" res="-4.2433803901076317e-03" rms="4.5422196388244629e-01" purity="2.9214897751808167e-01" nType="-99"/>
        </Node>
        <Node pos="r" depth="1" NCoef="0" IVar="5" Cut="8.3161201477050781e+00" cType="1" res="-3.6922791600227356e-01" rms="3.2547596096992493e-01" purity="1.2241441756486893e-01" nType="0">
          <Node pos="l" depth="2" NCoef="0" IVar="6" Cut="7.5029540061950684e-01" cType="1" res="-4.1692510247230530e-01" rms="2.6045492291450500e-01" purity="7.3703899979591370e-02" nType="0">
            <Node pos="l" depth="3" NCoef="0" IVar="5" Cut="5.5094256401062012e+00" cType="1" res="-4.4624307751655579e-01" rms="2.0420126616954803e-01" purity="4.3729141354560852e-02" nType="0">
              <Node pos="l" depth="4" NCoef="0" IVar="-1" Cut="0.0000000000000000e+00" cType="1" res="-1.0327644646167755e-02" rms="1.7553505301475525e-01" purity="3.1896114349365234e-02" nType="-99"/>
              <Node pos="r" depth="4" NCoef="0" IVar="-1" Cut="0.0000000000000000e+00" cType="1" res="-6.4813741482794285e-03" rms="3.9103874564170837e-01" purity="1.8912540376186371e-01" nType="-99"/>
            </Node>
            <Node pos="r" depth="3" NCoef="0" IVar="8" Cut="3.3333173394203186e-01" cType="1" res="-2.2345662117004395e-01" rms="4.4409742951393127e-01" purity="2.7150651812553406e-01" nType="0">
              <Node pos="l" depth="4" NCoef="0" IVar="-1" Cut="0.0000000000000000e+00" cType="1" res="-1.5481645241379738e-03" rms="4.9287080764770508e-01" purity="4.1847920417785645e-01" nType="-99"/>
              <Node pos="r" depth="4" NCoef="0" IVar="-1" Cut="0.0000000000000000e+00" cType="1" res="-9.4369528815150261e-03" rms="2.5555089116096497e-01" purity="7.0386834442615509e-02" nType="-99"/>
            </Node>
          </Node>
          <Node pos="r" depth="2" NCoef="0" IVar="-1" Cut="0.0000000000000000e+00" cType="1" res="3.1015686690807343e-03" rms="4.7074547410011292e-01" purity="6.6851913928985596e-01" nType="-99"/>
        </Node>
      </Node>
    </BinaryTree>
    <BinaryTree type="DecisionTree" boostWeight="1.0000000000000000e+00" itree="3">
      <Node pos="s" depth="0" NCoef="0" IVar="7" Cut="7.6133675873279572e-02" cType="1" res="3.1401286832988262e-03" rms="4.8940536379814148e-01" purity="5.0171536207199097e-01" nType="0">
        <Node pos="l" depth="1" NCoef="0" IVar="8" Cut="4.8755940794944763e-01" cType="1" res="3.6953300237655640e-01" rms="3.2242199778556824e-01" purity="8.7921810150146484e-01" nType="0">
          <Node pos="l" depth="2" NCoef="0" IVar="0" Cut="1.5397674560546875e+01" cType="1" res="4.1388541460037231e-01" rms="2.6198670268058777e-01" purity="9.2478698492050171e-01" nType="0">
            <Node pos="l" depth="3" NCoef="0" IVar="-1" Cut="0.0000000000000000e+00" cType="1" res="-9.0016343165189028e-04" rms="4.9785372614860535e-01" purity="4.5372179150581360e-01" nType="-99"/>
            <Node pos="r" depth="3" NCoef="0" IVar="10" Cut="6.1065769195556641e-01" cType="1" res="4.4467735290527344e-01" rms="2.0379287004470825e-01" purity="9.5637559890747070e-01" nType="0">
              <Node pos="l" depth="4" NCoef="0" IVar="-1" Cut="0.0000000000000000e+00" cType="1" res="4.2257593013346195e-03" rms="4.3973481655120850e-01" purity="7.3744130134582520e-01" nType="-99"/>
              <Node pos="r" depth="4" NCoef="0" IVar="-1" Cut="0.0000000000000000e+00" cType="1" res="7.9851532354950905e-03" rms="1.6448217630386353e-01" purity="9.7211110591888428e-01" nType="-99"/>
            </Node>
          </Node>
          <Node pos="r" depth="2" NCoef="0" IVar="-1" Cut="0.0000000000000000e+00" cType="1" res="-3.5368888638913631e-03" rms="4.6700263023376465e-01" purity="3.2337999343872070e-01" nType="-99"/>
        </Node>
        <Node pos="r" depth="1" NCoef="0" IVar="5" Cut="8.3161201477050781e+00" cType="1" res="-3.5571351647377014e-01" rms="3.3471250534057617e-01" purity="1.3198043406009674e-01" nType="0">
          <Node pos="l" depth="2" NCoef="0" IVar="6" Cut="7.7835196256637573e-01" cType="1" res="-4.0662676095962524e-01" rms="2.6892265677452087e-01" purity="7.9479314386844635e-02" nType="0">
            <Node pos="l" depth="3" NCoef="0" IVar="8" Cut="3.7313354015350342e-01" cType="1" res="-4.3627512454986572e-01" rms="2.1499556303024292e-01" purity="4.8823151737451553e-02" nType="0">
              <Node pos="l" depth="4" NCoef="0" IVar="-1" Cut="0.0000000000000000e+00" cType="1" res="-8.3870217204093933e-03" rms="3.0753827095031738e-01" purity="1.0605046898126602e-01" nType="-99"/>
              <Node pos="r" depth="4" NCoef="0" IVar="-1" Cut="0.0000000000000000e+00" cType="1" res="-1.0630058124661446e-02" rms="1.2353470176458359e-01" purity="1.5551082789897919e-02" nType="-99"/>
            </Node>
            <Node pos="r" depth="3" NCoef="0" IVar="-1" Cut="0.0000000000000000e+00" cType="1" res="-2.9449246358126402e-03" rms="4.7616812586784363e-01" purity="3.5107642412185669e-01" nType="-99"/>
          </Node>
          <Node pos="r" depth="2" NCoef="0" IVar="-1" Cut="0.0000000000000000e+00" cType="1" res="3.4980929922312498e-03" rms="4.6139979362487793e-01" purity="6.9248020648956299e-01" nType="-99"/>
        </Node>
      </Node>
    </BinaryTree>
    <BinaryTree type="DecisionTree" boostWeight="1.0000000000000000e+00" itree="4">
      <Node pos="s" depth="0" NCoef="0" IVar="7" Cut="6.7420803010463715e-02" cType="1" res="1.1197407729923725e-03" rms="4.8599991202354431e-01" purity="4.9917474389076233e-01" nType="0">
        <Node pos="l" depth="1" NCoef="0" IVar="0" Cut="1.9813257217407227e+01" cType="1" res="3.7498337030410767e-01" rms="3.1093540787696838e-01" purity="8.8800221681594849e-01" nType="0">
          <Node pos="l" depth="2" NCoef="0" IVar="6" Cut="7.9909944534301758e-01" cType="1" res="-2.6644520461559296e-02" rms="4.9523052573204041e-01" purity="4.7486156225204468e-01" nType="0">
            <Node pos="l" depth="3" NCoef="0" IVar="-1" Cut="0.0000000000000000e+00" cType="1" res="-5.3313407115638256e-03" rms="4.2737743258476257e-01" purity="2.4591946601867676e-01" nType="-99"/>
            <Node pos="r" depth="3" NCoef="0" IVar="-1" Cut="0.0000000000000000e+00" cType="1" res="2.8928548563271761e-03" rms="4.7107020020484924e-01" purity="6.5779292583465576e-01" nType="-99"/>
          </Node>
          <Node pos="r" depth="2" NCoef="0" IVar="8" Cut="4.0795508027076721e-01" cType="1" res="4.3161067366600037e-01" rms="2.2312147915363312e-01" purity="9.4625270366668701e-01" nType="0">
            <Node pos="l" depth="3" NCoef="0" IVar="10" Cut="6.5021914243698120e-01" cType="1" res="4.5361104607582092e-01" rms="1.7206269502639771e-01" purity="9.6927362680435181e-01" nType="0">
              <Node pos="l" depth="4" NCoef="0" IVar="-1" Cut="0.0000000000000000e+00" cType="1" res="5.0415964797139168e-03" rms="4.0833237767219543e-01" purity="7.8803312778472900e-01" nType="-99"/>
              <Node pos="r" depth="4" NCoef="0" IVar="-1" Cut="0.0000000000000000e+00" cType="1" res="8.0849742516875267e-03" rms="1.2932932376861572e-01" purity="9.8296320438385010e-01" nType="-99"/>
            </Node>
            <Node pos="r" depth="3" NCoef="0" IVar="-1" Cut="0.0000000000000000e+00" cType="1" res="1.9156930502504110e-03" rms="4.8639744520187378e-01" purity="5.9960263967514038e-01" nType="-99"/>
          </Node>
        </Node>
        <Node pos="r" depth="1" NCoef="0" IVar="5" Cut="8.4000635147094727e+00" cType="1" res="-3.4318345785140991e-01" rms="3.4265547990798950e-01" purity="1.4109079539775848e-01" nType="0">
          <Node pos="l" depth="2" NCoef="0" IVar="6" Cut="7.7816104888916016e-01" cType="1" res="-3.9467182755470276e-01" rms="2.7975553274154663e-01" purity="8.7417513132095337e-02" nType="0">
            <Node pos="l" depth="3" NCoef="0" IVar="8" Cut="3.6318346858024597e-01" cType="1" res="-4.2883217334747314e-01" rms="2.2037096321582794e-01" purity="5.1627587527036667e-02" nType="0">
              <Node pos="l" depth="4" NCoef="0" IVar="-1" Cut="0.0000000000000000e+00" cType="1" res="-8.1256292760372162e-03" rms="3.1639382243156433e-01" purity="1.1346154659986496e-01" nType="-99"/>
              <Node pos="r" depth="4" NCoef="0" IVar="-1" Cut="0.0000000000000000e+00" cType="1" res="-1.0522712953388691e-02" rms="1.2313330918550491e-01" purity="1.5479617752134800e-02" nType="-99"/>
            </Node>
            <Node pos="r" depth="3" NCoef="0" IVar="8" Cut="1.9900208711624146e-01" cType="1" res="-1.2006493657827377e-01" rms="4.8189538717269897e-01" purity="3.7512409687042236e-01" nType="0">
              <Node pos="l" depth="4" NCoef="0" IVar="-1" Cut="0.0000000000000000e+00" cType="1" res="1.0823779739439487e-03" rms="4.9560800194740295e-01" purity="5.5349534749984741e-01" nType="-99"/>
              <Node pos="r" depth="4" NCoef="0" IVar="-1" Cut="0.0000000000000000e+00" cType="1" res="-6.6993371583521366e-03" rms="3.8400149345397949e-01" purity="1.8142156302928925e-01" nType="-99"/>
            </Node>
          </Node>
          <Node pos="r" depth="2" NCoef="0" IVar="-1" Cut="0.0000000000000000e+00" cType="1" res="3.4626643173396587e-03" rms="4.6099510788917542e-01" purity="6.9268089532852173e-01" nType="-99"/>
        </Node>
      </Node>
    </BinaryTree>
    <BinaryTree type="DecisionTree" boostWeight="1.0000000000000000e+00" itree="5">
      <Node pos="s" depth="0" NCoef="0" IVar="7" Cut="8.4987640380859375e-02" cType="1" res="4.3409545905888081e-03" rms="4.8265582323074341e-01" purity="5.0200760364532471e-01" nType="0">
        <Node pos="l" depth="1" NCoef="0" IVar="6" Cut="8.1543397903442383e-01" cType="1" res="3.5499554872512817e-01" rms="3.2972505688667297e-01" purity="8.7043046951293945e-01" nType="0">
          <Node pos="l" depth="2" NCoef="0" IVar="5" Cut="4.7961311340332031e+00" cType="1" res="4.8325071111321449e-03" rms="4.9284493923187256e-01" purity="5.0811570882797241e-01" nType="0">
            <Node pos="l" depth="3" NCoef="0" IVar="8" Cut="3.2835632562637329e-01" cType="1" res="-1.6809698939323425e-01" rms="4.6459692716598511e-01" purity="3.3135631680488586e-01" nType="0">
              <Node pos="l" depth="4" NCoef="0" IVar="-1" Cut="0.0000000000000000e+00" cType="1" res="1.5704531688243151e-04" rms="4.9530225992202759e-01" purity="5.1402050256729126e-01" nType="-99"/>
              <Node pos="r" depth="4" NCoef="0" IVar="-1" Cut="0.0000000000000000e+00" cType="1" res="-7.5213569216430187e-03" rms="3.5104343295097351e-01" purity="1.4705435931682587e-01" nType="-99"/>
            </Node>
            <Node pos="r" depth="3" NCoef="0" IVar="-1" Cut="0.0000000000000000e+00" cType="1" res="4.9182716757059097e-03" rms="4.1018751263618469e-01" purity="7.7905297279357910e-01" nType="-99"/>
          </Node>
          <Node pos="r" depth="2" NCoef="0" IVar="0" Cut="1.9818756103515625e+01" cType="1" res="4.2408156394958496e-01" rms="2.3082806169986725e-01" purity="9.4191396236419678e-01" nType="0">
            <Node pos="l" depth="3" NCoef="0" IVar="-1" Cut="0.0000000000000000e+00" cType="1" res="3.1554114539176226e-03" rms="4.6555608510971069e-01" purity="6.7363095283508301e-01" nType="-99"/>
            <Node pos="r" depth="3" NCoef="0" IVar="10" Cut="6.7009091377258301e-01" cType="1" res="4.4613111019134521e-01" rms="1.8181516230106354e-01" purity="9.6506226062774658e-01" nType="0">
              <Node pos="l" depth="4" NCoef="0" IVar="-1" Cut="0.0000000000000000e+00" cType="1" res="4.8100026324391365e-03" rms="4.1519737243652344e-01" purity="7.7610117197036743e-01" nType="-99"/>
              <Node pos="r" depth="4" NCoef="0" IVar="-1" Cut="0.0000000000000000e+00" cType="1" res="7.9762209206819534e-03" rms="1.4050802588462830e-01" purity="9.7943115234375000e-01" nType="-99"/>
            </Node>
          </Node>
        </Node>
        <Node pos="r" depth="1" NCoef="0" IVar="5" Cut="8.2696228027343750e+00" cType="1" res="-3.5417643189430237e-01" rms="3.2516148686408997e-01" purity="1.2532354891300201e-01" nType="0">
          <Node pos="l" depth="2" NCoef="0" IVar="6" Cut="7.7969557046890259e-01" cType="1" res="-4.0283039212226868e-01" rms="2.5967761874198914e-01" purity="7.4059374630451202e-02" nType="0">
            <Node pos="l" depth="3" NCoef="0" IVar="5" Cut="5.7635941505432129e+00" cType="1" res="-4.2651680111885071e-01" rms="2.1488934755325317e-01" purity="4.8875417560338974e-02" nType="0">
              <Node pos="l" depth="4" NCoef="0" IVar="-1" Cut="0.0000000000000000e+00" cType="1" res="-9.8728267475962639e-03" rms="1.8947492539882660e-01" purity="3.7511132657527924e-02" nType="-99"/>
              <Node pos="r" depth="4" NCoef="0" IVar="-1" Cut="0.0000000000000000e+00" cType="1" res="-5.6902165524661541e-03" rms="4.0769392251968384e-01" purity="2.1195551753044128e-01" nType="-99"/>
            </Node>
            <Node pos="r" depth="3" NCoef="0" IVar="-1" Cut="0.0000000000000000e+00" cType="1" res="-3.4546395763754845e-03" rms="4.6654725074768066e-01" purity="3.2430624961853027e-01" nType="-99"/>
          </Node>
          <Node pos="r" depth="2" NCoef="0" IVar="-1" Cut="0.0000000000000000e+00" cType="1" res="3.2175243832170963e-03" rms="4.6624761819839478e-01" purity="6.7991632223129272e-01" nType="-99"/>
        </Node>
      </Node>
    </BinaryTree>
    <BinaryTree type="DecisionTree" boostWeight="1.0000000000000000e+00" itree="6">
      <Node pos="s" depth="0" NCoef="0" IVar="6" Cut="8.0805331468582153e-01" cType="1" res="2.4021712597459555e-03" rms="4.7921669483184814e-01" purity="4.9947068095207214e-01" nType="0">
        <Node pos="l" depth="1" NCoef="0" IVar="5" Cut="7.2273616790771484e+00" cType="1" res="-3.2311859726905823e-01" rms="3.5200521349906921e-01" purity="1.5480491518974304e-01" nType="0">
          <Node pos="l" depth="2" NCoef="0" IVar="7" Cut="1.3484160602092743e-01" cType="1" res="-3.8512176275253296e-01" rms="2.7963623404502869e-01" purity="8.9315794408321381e-02" nType="0">
            <Node pos="l" depth="3" NCoef="0" IVar="8" Cut="4.8755940794944763e-01" cType="1" res="-1.8021401762962341e-01" rms="4.5478233695030212e-01" purity="3.1033435463905334e-01" nType="0">
              <Node pos="l" depth="4" NCoef="0" IVar="-1" Cut="0.0000000000000000e+00" cType="1" res="-4.6835708781145513e-04" rms="4.9294728040695190e-01" purity="4.7368460893630981e-01" nType="-99"/>
              <Node pos="r" depth="4" NCoef="0" IVar="-1" Cut="0.0000000000000000e+00" cType="1" res="-9.0951090678572655e-03" rms="2.5810700654983521e-01" purity="7.2599351406097412e-02" nType="-99"/>
            </Node>
            <Node pos="r" depth="3" NCoef="0" IVar="8" Cut="3.4825828671455383e-01" cType="1" res="-4.3108537793159485e-01" rms="1.9445268809795380e-01" purity="3.9738290011882782e-02" nType="0">
              <Node pos="l" depth="4" NCoef="0" IVar="-1" Cut="0.0000000000000000e+00" cType="1" res="-8.4808524698019028e-03" rms="2.8787580132484436e-01" purity="9.1693259775638580e-02" nType="-99"/>
              <Node pos="r" depth="4" NCoef="0" IVar="-1" Cut="0.0000000000000000e+00" cType="1" res="-1.0429366491734982e-02" rms="1.0486590862274170e-01" purity="1.1152865365147591e-02" nType="-99"/>
            </Node>
          </Node>
          <Node pos="r" depth="2" NCoef="0" IVar="3" Cut="7.9154781997203827e-03" cType="1" res="1.8434575200080872e-01" rms="4.5721623301506042e-01" purity="6.9080024957656860e-01" nType="0">
            <Node pos="l" depth="3" NCoef="0" IVar="-1" Cut="0.0000000000000000e+00" cType="1" res="6.4527839422225952e-03" rms="3.3103597164154053e-01" purity="8.7243109941482544e-01" nType="-99"/>
            <Node pos="r" depth="3" NCoef="0" IVar="-1" Cut="0.0000000000000000e+00" cType="1" res="-8.7148975580930710e-04" rms="4.9352961778640747e-01" purity="4.5832052826881409e-01" nType="-99"/>
          </Node>
        </Node>
        <Node pos="r" depth="1" NCoef="0" IVar="7" Cut="9.2468403279781342e-02" cType="1" res="3.8187402486801147e-01" rms="2.9221573472023010e-01" purity="9.0126049518585205e-01" nType="0">
          <Node pos="l" depth="2" NCoef="0" IVar="0" Cut="2.2048179626464844e+01" cType="1" res="4.1664886474609375e-01" rms="2.3769679665565491e-01" purity="9.3787014484405518e-01" nType="0">
            <Node pos="l" depth="3" NCoef="0" IVar="-1" Cut="0.0000000000000000e+00" cType="1" res="3.4559734631329775e-03" rms="4.5573633909225464e-01" purity="6.9499880075454712e-01" nType="-99"/>
            <Node pos="r" depth="3" NCoef="0" IVar="10" Cut="6.5186858177185059e-01" cType="1" res="4.4321307539939880e-01" rms="1.7965257167816162e-01" purity="9.6578884124755859e-01" nType="0">
              <Node pos="l" depth="4" NCoef="0" IVar="-1" Cut="0.0000000000000000e+00" cType="1" res="4.8026042059063911e-03" rms="4.1404047608375549e-01" purity="7.7737635374069214e-01" nType="-99"/>
              <Node pos="r" depth="4" NCoef="0" IVar="-1" Cut="0.0000000000000000e+00" cType="1" res="7.9275239259004593e-03" rms="1.3772819936275482e-01" purity="9.8020201921463013e-01" nType="-99"/>
            </Node>
          </Node>
          <Node pos="r" depth="2" NCoef="0" IVar="-1" Cut="0.0000000000000000e+00" cType="1" res="-1.7261860193684697e-03" rms="4.8882111907005310e-01" purity="4.0893954038619995e-01" nType="-99"/>
        </Node>
      </Node>
    </BinaryTree>
    <BinaryTree type="DecisionTree" boostWeight="1.0000000000000000e+00" itree="7">
      <Node pos="s" depth="0" NCoef="0" IVar="7" Cut="9.6579745411872864e-02" cType="1" res="3.0489207711070776e-03" rms="4.7588342428207397e-01" purity="4.9968948960304260e-01" nType="0">
        <Node pos="l" depth="1" NCoef="0" IVar="8" Cut="4.8755940794944763e-01" cType="1" res="3.4171286225318909e-01" rms="3.3517283201217651e-01" purity="8.6233276128768921e-01" nType="0">
          <Node pos="l" depth="2" NCoef="0" IVar="0" Cut="1.6488471984863281e+01" cType="1" res="3.9165055751800537e-01" rms="2.7323094010353088e-01" purity="9.1524851322174072e-01" nType="0">
            <Node pos="l" depth="3" NCoef="0" IVar="-1" Cut="0.0000000000000000e+00" cType="1" res="-2.4874584050849080e-04" rms="4.9698024988174438e-01" purity="4.8745551705360413e-01" nType="-99"/>
            <Node pos="r" depth="3" NCoef="0" IVar="10" Cut="5.4120010137557983e-01" cType="1" res="4.2382302880287170e-01" rms="2.1656197309494019e-01" purity="9.4929200410842896e-01" nType="0">
              <Node pos="l" depth="4" NCoef="0" IVar="-1" Cut="0.0000000000000000e+00" cType="1" res="3.2086176797747612e-03" rms="4.6156740188598633e-01" purity="6.8619590997695923e-01" nType="-99"/>
              <Node pos="r" depth="4" NCoef="0" IVar="-1" Cut="0.0000000000000000e+00" cType="1" res="7.6684826053678989e-03" rms="1.7791560292243958e-01" purity="9.6645098924636841e-01" nType="-99"/>
            </Node>
          </Node>
          <Node pos="r" depth="2" NCoef="0" IVar="-1" Cut="0.0000000000000000e+00" cType="1" res="-3.8505368866026402e-03" rms="4.5380961894989014e-01" purity="3.0374017357826233e-01" nType="-99"/>
        </Node>
        <Node pos="r" depth="1" NCoef="0" IVar="5" Cut="9.4509973526000977e+00" cType="1" res="-3.5926306247711182e-01" rms="3.0754882097244263e-01" purity="1.1172378808259964e-01" nType="0">
          <Node pos="l" depth="2" NCoef="0" IVar="6" Cut="7.2660112380981445e-01" cType="1" res="-3.9629089832305908e-01" rms="2.5535228848457336e-01" purity="7.2082124650478363e-02" nType="0">
            <Node pos="l" depth="3" NCoef="0" IVar="5" Cut="5.8799595832824707e+00" cType="1" res="-4.2375102639198303e-01" rms="2.0005777478218079e-01" purity="4.2507257312536240e-02" nType="0">
              <Node pos="l" depth="4" NCoef="0" IVar="-1" Cut="0.0000000000000000e+00" cType="1" res="-9.8918257281184196e-03" rms="1.6738723218441010e-01" purity="2.9035760089755058e-02" nType="-99"/>
              <Node pos="r" depth="4" NCoef="0" IVar="-1" Cut="0.0000000000000000e+00" cType="1" res="-5.2652903832495213e-03" rms="4.1824987530708313e-01" purity="2.3112362623214722e-01" nType="-99"/>
            </Node>
            <Node pos="r" depth="3" NCoef="0" IVar="8" Cut="4.0795838832855225e-01" cType="1" res="-2.5525864958763123e-01" rms="4.1324609518051147e-01" purity="2.2397550940513611e-01" nType="0">
              <Node pos="l" depth="4" NCoef="0" IVar="-1" Cut="0.0000000000000000e+00" cType="1" res="-2.6457258500158787e-03" rms="4.7572255134582520e-01" purity="3.5425722599029541e-01" nType="-99"/>
              <Node pos="r" depth="4" NCoef="0" IVar="-1" Cut="0.0000000000000000e+00" cType="1" res="-9.6681360155344009e-03" rms="2.0507989823818207e-01" purity="4.4314831495285034e-02" nType="-99"/>
            </Node>
          </Node>
          <Node pos="r" depth="2" NCoef="0" IVar="-1" Cut="0.0000000000000000e+00" cType="1" res="3.7672107573598623e-03" rms="4.5126575231552124e-01" purity="7.1408635377883911e-01" nType="-99"/>
        </Node>
      </Node>
    </BinaryTree>
    <BinaryTree type="DecisionTree" boostWeight="1.0000000000000000e+00" itree="8">
      <Node pos="s" depth="0" NCoef="0" IVar="7" Cut="9.6579745411872864e-02" cType="1" res="4.1078254580497742e-03" rms="4.7271969914436340e-01" purity="5.0034666061401367e-01" nType="0">
        <Node pos="l" depth="1" NCoef="0" IVar="8" Cut="5.4726052284240723e-01" cType="1" res="3.3705890178680420e-01" rms="3.3588436245918274e-01" purity="8.6047983169555664e-01" nType="0">
          <Node pos="l" depth="2" NCoef="0" IVar="0" Cut="1.5387071609497070e+01" cType="1" res="3.8419833779335022e-01" rms="2.7902421355247498e-01" purity="9.1071206331253052e-01" nType="0">
            <Node pos="l" depth="3" NCoef="0" IVar="-1" Cut="0.0000000000000000e+00" cType="1" res="-1.0271288920193911e-03" rms="4.9485710263252258e-01" purity="4.4624900817871094e-01" nType="-99"/>
            <Node pos="r" depth="3" NCoef="0" IVar="6" Cut="8.4456443786621094e-01" cType="1" res="4.1571629047393799e-01" rms="2.2593316435813904e-01" purity="9.4430488348007202e-01" nType="0">
              <Node pos="l" depth="4" NCoef="0" IVar="-1" Cut="0.0000000000000000e+00" cType="1" res="4.6842698939144611e-03" rms="4.1248410940170288e-01" purity="7.7531081438064575e-01" nType="-99"/>
              <Node pos="r" depth="4" NCoef="0" IVar="-1" Cut="0.0000000000000000e+00" cType="1" res="7.7072908170521259e-03" rms="1.6039359569549561e-01" purity="9.7306799888610840e-01" nType="-99"/>
            </Node>
          </Node>
          <Node pos="r" depth="2" NCoef="0" IVar="-1" Cut="0.0000000000000000e+00" cType="1" res="-5.0875046290457249e-03" rms="4.2458665370941162e-01" purity="2.4473766982555389e-01" nType="-99"/>
        </Node>
        <Node pos="r" depth="1" NCoef="0" IVar="5" Cut="8.3161201477050781e+00" cType="1" res="-3.5297113656997681e-01" rms="3.0940657854080200e-01" purity="1.1411574482917786e-01" nType="0">
          <Node pos="l" depth="2" NCoef="0" IVar="6" Cut="7.5706779956817627e-01" cType="1" res="-3.9418768882751465e-01" rms="2.5062987208366394e-01" purity="6.9172218441963196e-02" nType="0">
            <Node pos="l" depth="3" NCoef="0" IVar="8" Cut="3.4825798869132996e-01" cType="1" res="-4.1638591885566711e-01" rms="2.0558424293994904e-01" purity="4.4762961566448212e-02" nType="0">
              <Node pos="l" depth="4" NCoef="0" IVar="-1" Cut="0.0000000000000000e+00" cType="1" res="-8.0873463302850723e-03" rms="2.9942113161087036e-01" purity="1.0023216158151627e-01" nType="-99"/>
              <Node pos="r" depth="4" NCoef="0" IVar="-1" Cut="0.0000000000000000e+00" cType="1" res="-1.0143542662262917e-02" rms="1.1904270201921463e-01" purity="1.4503163285553455e-02" nType="-99"/>
            </Node>
            <Node pos="r" depth="3" NCoef="0" IVar="8" Cut="2.6366940140724182e-01" cType="1" res="-2.2214025259017944e-01" rms="4.3436408042907715e-01" purity="2.5835615396499634e-01" nType="0">
              <Node pos="l" depth="4" NCoef="0" IVar="-1" Cut="0.0000000000000000e+00" cType="1" res="-1.4250199310481548e-03" rms="4.9139893054962158e-01" purity="4.1565284132957458e-01" nType="-99"/>
              <Node pos="r" depth="4" NCoef="0" IVar="-1" Cut="0.0000000000000000e+00" cType="1" res="-8.3780381828546524e-03" rms="2.9375201463699341e-01" purity="9.6138805150985718e-02" nType="-99"/>
            </Node>
          </Node>
          <Node pos="r" depth="2" NCoef="0" IVar="-1" Cut="0.0000000000000000e+00" cType="1" res="2.5906758382916451e-03" rms="4.7610089182853699e-01" purity="6.4889746904373169e-01" nType="-99"/>
        </Node>
      </Node>
    </BinaryTree>
    <BinaryTree type="DecisionTree" boostWeight="1.0000000000000000e+00" itree="9">
      <Node pos="s" depth="0" NCoef="0" IVar="7" Cut="8.4987640380859375e-02" cType="1" res="2.8118353802710772e-03" rms="4.6931758522987366e-01" purity="4.9849817156791687e-01" nType="0">
        <Node pos="l" depth="1" NCoef="0" IVar="8" Cut="5.4228174686431885e-01" cType="1" res="3.4518930315971375e-01" rms="3.2262232899665833e-01" purity="8.7268644571304321e-01" nType="0">
          <Node pos="l" depth="2" NCoef="0" IVar="0" Cut="1.9815355300903320e+01" cType="1" res="3.8686990737915039e-01" rms="2.6902723312377930e-01" purity="9.1759920120239258e-01" nType="0">
            <Node pos="l" depth="3" NCoef="0" IVar="-1" Cut="0.0000000000000000e+00" cType="1" res="1.4174305833876133e-03" rms="4.8765093088150024e-01" purity="5.8129203319549561e-01" nType="-99"/>
            <Node pos="r" depth="3" NCoef="0" IVar="10" Cut="6.0054367780685425e-01" cType="1" res="4.2467787861824036e-01" rms="1.9781661033630371e-01" purity="9.5821523666381836e-01" nType="0">
              <Node pos="l" depth="4" NCoef="0" IVar="-1" Cut="0.0000000000000000e+00" cType="1" res="3.8036808837205172e-03" rms="4.4409570097923279e-01" purity="7.2644096612930298e-01" nType="-99"/>
              <Node pos="r" depth="4" NCoef="0" IVar="-1" Cut="0.0000000000000000e+00" cType="1" res="7.6623791828751564e-03" rms="1.5676029026508331e-01" purity="9.7433102130889893e-01" nType="-99"/>
            </Node>
          </Node>
          <Node pos="r" depth="2" NCoef="0" IVar="-1" Cut="0.0000000000000000e+00" cType="1" res="-4.3339882977306843e-03" rms="4.4296520948410034e-01" purity="2.7759349346160889e-01" nType="-99"/>
        </Node>
        <Node pos="r" depth="1" NCoef="0" IVar="5" Cut="8.2696228027343750e+00" cType="1" res="-3.4120535850524902e-01" rms="3.1758093833923340e-01" purity="1.2251784652471542e-01" nType="0">
          <Node pos="l" depth="2" NCoef="0" IVar="6" Cut="7.9439562559127808e-01" cType="1" res="-3.8514840602874756e-01" rms="2.5796303153038025e-01" purity="7.4235752224922180e-02" nType="0">
            <Node pos="l" depth="3" NCoef="0" IVar="8" Cut="3.1343224644660950e-01" cType="1" res="-4.0563231706619263e-01" rms="2.1943576633930206e-01" purity="5.1631938666105270e-02" nType="0">
              <Node pos="l" depth="4" NCoef="0" IVar="-1" Cut="0.0000000000000000e+00" cType="1" res="-7.6587661169469357e-03" rms="3.1813809275627136e-01" purity="1.1560174077749252e-01" nType="-99"/>
              <Node pos="r" depth="4" NCoef="0" IVar="-1" Cut="0.0000000000000000e+00" cType="1" res="-9.9485386162996292e-03" rms="1.3469763100147247e-01" purity="1.8703904002904892e-02" nType="-99"/>
            </Node>
            <Node pos="r" depth="3" NCoef="0" IVar="-1" Cut="0.0000000000000000e+00" cType="1" res="-2.6233103126287460e-03" rms="4.7531563043594360e-01" purity="3.5761630535125732e-01" nType="-99"/>
          </Node>
          <Node pos="r" depth="2" NCoef="0" IVar="-1" Cut="0.0000000000000000e+00" cType="1" res="2.9267570935189724e-03" rms="4.6906155347824097e-01" purity="6.6889292001724243e-01" nType="-99"/>
        </Node>
      </Node>
    </BinaryTree>
    <BinaryTree type="DecisionTree" boostWeight="1.0000000000000000e+00" itree="10">
      <Node pos="s" depth="0" NCoef="0" IVar="7" Cut="6.7420803010463715e-02" cType="1" res="5.4892348125576973e-03" rms="4.6615606546401978e-01" purity="5.0085592269897461e-01" nType="0">
        <Node pos="l" depth="1" NCoef="0" IVar="0" Cut="1.5387071609497070e+01" cType="1" res="3.5933807492256165e-01" rms="3.0094444751739502e-01" purity="8.9100807905197144e-01" nType="0">
          <Node pos="l" depth="2" NCoef="0" IVar="-1" Cut="0.0000000000000000e+00" cType="1" res="-2.6900151278823614e-03" rms="4.7618719935417175e-01" purity="3.6239367723464966e-01" nType="-99"/>
          <Node pos="r" depth="2" NCoef="0" IVar="8" Cut="4.7760897874832153e-01" cType="1" res="3.9955171942710876e-01" rms="2.4093280732631683e-01" purity="9.3428730964660645e-01" nType="0">
            <Node pos="l" depth="3" NCoef="0" IVar="10" Cut="6.1076384782791138e-01" cType="1" res="4.2381525039672852e-01" rms="1.9116255640983582e-01" purity="9.6116793155670166e-01" nType="0">
              <Node pos="l" depth="4" NCoef="0" IVar="-1" Cut="0.0000000000000000e+00" cType="1" res="4.1385879740118980e-03" rms="4.3245172500610352e-01" purity="7.4887204170227051e-01" nType="-99"/>
              <Node pos="r" depth="4" NCoef="0" IVar="-1" Cut="0.0000000000000000e+00" cType="1" res="7.6296445913612843e-03" rms="1.5187364816665649e-01" purity="9.7601300477981567e-01" nType="-99"/>
            </Node>
            <Node pos="r" depth="3" NCoef="0" IVar="-1" Cut="0.0000000000000000e+00" cType="1" res="2.9864861062378623e-05" rms="4.9269607663154602e-01" purity="4.9332183599472046e-01" nType="-99"/>
          </Node>
        </Node>
        <Node pos="r" depth="1" NCoef="0" IVar="5" Cut="8.3161201477050781e+00" cType="1" res="-3.1668373942375183e-01" rms="3.3896088600158691e-01" purity="1.4562945067882538e-01" nType="0">
          <Node pos="l" depth="2" NCoef="0" IVar="6" Cut="8.0025815963745117e-01" cType="1" res="-3.6730697751045227e-01" rms="2.7856475114822388e-01" purity="8.9643776416778564e-02" nType="0">
            <Node pos="l" depth="3" NCoef="0" IVar="8" Cut="3.5323339700698853e-01" cType="1" res="-3.9465820789337158e-01" rms="2.3266233503818512e-01" purity="5.9042878448963165e-02" nType="0">
              <Node pos="l" depth="4" NCoef="0" IVar="-1" Cut="0.0000000000000000e+00" cType="1" res="-7.2931325994431973e-03" rms="3.3191958069801331e-01" purity="1.2882997095584869e-01" nType="-99"/>
              <Node pos="r" depth="4" NCoef="0" IVar="-1" Cut="0.0000000000000000e+00" cType="1" res="-9.8585523664951324e-03" rms="1.3507574796676636e-01" purity="1.8882857635617256e-02" nType="-99"/>
            </Node>
            <Node pos="r" depth="3" NCoef="0" IVar="-1" Cut="0.0000000000000000e+00" cType="1" res="-1.3988410355523229e-03" rms="4.8603308200836182e-01" purity="4.2261704802513123e-01" nType="-99"/>
          </Node>
          <Node pos="r" depth="2" NCoef="0" IVar="-1" Cut="0.0000000000000000e+00" cType="1" res="3.5278764553368092e-03" rms="4.5370021462440491e-01" purity="7.0587152242660522e-01" nType="-99"/>
        </Node>
      </Node>
    </BinaryTree>
    <BinaryTree type="DecisionTree" boostWeight="1.0000000000000000e+00" itree="11">
      <Node pos="s" depth="0" NCoef="0" IVar="6" Cut="8.1197535991668701e-01" cType="1" res="5.3556729108095169e-03" rms="4.6325057744979858e-01" purity="5.0047677755355835e-01" nType="0">
        <Node pos="l" depth="1" NCoef="0" IVar="5" Cut="7.2428588867187500e+00" cType="1" res="-3.0125567317008972e-01" rms="3.4930464625358582e-01" purity="1.6016739606857300e-01" nType="0">
          <Node pos="l" depth="2" NCoef="0" IVar="7" Cut="1.4790655672550201e-01" cType="1" res="-3.6367037892341614e-01" rms="2.7808085083961487e-01" purity="9.1302096843719482e-02" nType="0">
            <Node pos="l" depth="3" NCoef="0" IVar="8" Cut="4.6268075704574585e-01" cType="1" res="-1.9128139317035675e-01" rms="4.4081220030784607e-01" purity="2.9109248518943787e-01" nType="0">
              <Node pos="l" depth="4" NCoef="0" IVar="-1" Cut="0.0000000000000000e+00" cType="1" res="-1.0285811731591821e-03" rms="4.8673823475837708e-01" purity="4.4402927160263062e-01" nType="-99"/>
              <Node pos="r" depth="4" NCoef="0" IVar="-1" Cut="0.0000000000000000e+00" cType="1" res="-8.6968429386615753e-03" rms="2.5988212227821350e-01" purity="7.5094416737556458e-02" nType="-99"/>
            </Node>
            <Node pos="r" depth="3" NCoef="0" IVar="8" Cut="2.6865622401237488e-01" cType="1" res="-4.0902286767959595e-01" rms="1.9151182472705841e-01" purity="3.8740776479244232e-02" nType="0">
              <Node pos="l" depth="4" NCoef="0" IVar="-1" Cut="0.0000000000000000e+00" cType="1" res="-7.9587437212467194e-03" rms="2.9485636949539185e-01" purity="9.6967525780200958e-02" nType="-99"/>
              <Node pos="r" depth="4" NCoef="0" IVar="-1" Cut="0.0000000000000000e+00" cType="1" res="-9.8922941833734512e-03" rms="1.1674174666404724e-01" purity="1.3917713426053524e-02" nType="-99"/>
            </Node>
          </Node>
          <Node pos="r" depth="2" NCoef="0" IVar="3" Cut="9.6589848399162292e-03" cType="1" res="1.8354527652263641e-01" rms="4.5145145058631897e-01" purity="6.9507300853729248e-01" nType="0">
            <Node pos="l" depth="3" NCoef="0" IVar="-1" Cut="0.0000000000000000e+00" cType="1" res="6.3852379098534584e-03" rms="3.2379621267318726e-01" purity="8.7741369009017944e-01" nType="-99"/>
            <Node pos="r" depth="3" NCoef="0" IVar="-1" Cut="0.0000000000000000e+00" cType="1" res="-1.2644447851926088e-03" rms="4.8908773064613342e-01" purity="4.3806117773056030e-01" nType="-99"/>
          </Node>
        </Node>
        <Node pos="r" depth="1" NCoef="0" IVar="7" Cut="7.3974721133708954e-02" cType="1" res="3.6829528212547302e-01" rms="2.8494086861610413e-01" purity="9.0330511331558228e-01" nType="0">
          <Node pos="l" depth="2" NCoef="0" IVar="0" Cut="1.9826639175415039e+01" cType="1" res="4.0618777275085449e-01" rms="2.2211717069149017e-01" purity="9.4500708580017090e-01" nType="0">
            <Node pos="l" depth="3" NCoef="0" IVar="-1" Cut="0.0000000000000000e+00" cType="1" res="2.8995156753808260e-03" rms="4.6580630540847778e-01" purity="6.6566598415374756e-01" nType="-99"/>
            <Node pos="r" depth="3" NCoef="0" IVar="10" Cut="6.7097765207290649e-01" cType="1" res="4.2798805236816406e-01" rms="1.6987720131874084e-01" purity="9.6919012069702148e-01" nType="0">
              <Node pos="l" depth="4" NCoef="0" IVar="-1" Cut="0.0000000000000000e+00" cType="1" res="4.9943728372454643e-03" rms="3.9578804373741150e-01" purity="8.0199086666107178e-01" nType="-99"/>
              <Node pos="r" depth="4" NCoef="0" IVar="-1" Cut="0.0000000000000000e+00" cType="1" res="7.6640797778964043e-03" rms="1.3083165884017944e-01" purity="9.8202306032180786e-01" nType="-99"/>
            </Node>
          </Node>
          <Node pos="r" depth="2" NCoef="0" IVar="-1" Cut="0.0000000000000000e+00" cType="1" res="-2.6655936380848289e-04" rms="4.9185609817504883e-01" purity="4.8311716318130493e-01" nType="-99"/>
        </Node>
      </Node>
    </BinaryTree>
    <BinaryTree type="DecisionTree" boostWeight="1.0000000000000000e+00" itree="12">
      <Node pos="s" depth="0" NCoef="0" IVar="7" Cut="9.6579745411872864e-02" cType="1" res="6.2330723740160465e-03" rms="4.6004223823547363e-01" purity="5.0102889537811279e-01" nType="0">
        <Node pos="l" depth="1" NCoef="0" IVar="8" Cut="5.5721074342727661e-01" cType="1" res="3.2647338509559631e-01" rms="3.3039039373397827e-01" purity="8.6113399267196655e-01" nType="0">
          <Node pos="l" depth="2" NCoef="0" IVar="0" Cut="1.5404915809631348e+01" cType="1" res="3.7036097049713135e-01" rms="2.7787551283836365e-01" purity="9.0950268507003784e-01" nType="0">
            <Node pos="l" depth="3" NCoef="0" IVar="-1" Cut="0.0000000000000000e+00" cType="1" res="-1.0522369993850589e-03" rms="4.9387013912200928e-01" purity="4.4378843903541565e-01" nType="-99"/>
            <Node pos="r" depth="3" NCoef="0" IVar="10" Cut="5.2104693651199341e-01" cType="1" res="4.0102031826972961e-01" rms="2.2632624208927155e-01" purity="9.4324702024459839e-01" nType="0">
              <Node pos="l" depth="4" NCoef="0" IVar="-1" Cut="0.0000000000000000e+00" cType="1" res="2.5416899006813765e-03" rms="4.7003278136253357e-01" purity="6.5862840414047241e-01" nType="-99"/>
              <Node pos="r" depth="4" NCoef="0" IVar="-1" Cut="0.0000000000000000e+00" cType="1" res="7.3272818699479103e-03" rms="1.8867085874080658e-01" purity="9.6139818429946899e-01" nType="-99"/>
            </Node>
          </Node>
          <Node pos="r" depth="2" NCoef="0" IVar="-1" Cut="0.0000000000000000e+00" cType="1" res="-4.8047965392470360e-03" rms="4.2565160989761353e-01" purity="2.5064375996589661e-01" nType="-99"/>
        </Node>
        <Node pos="r" depth="1" NCoef="0" IVar="5" Cut="7.9100847244262695e+00" cType="1" res="-3.3853015303611755e-01" rms="3.0446478724479675e-01" purity="1.1334814876317978e-01" nType="0">
          <Node pos="l" depth="2" NCoef="0" IVar="6" Cut="7.5764542818069458e-01" cType="1" res="-3.8125121593475342e-01" rms="2.4209132790565491e-01" purity="6.4932383596897125e-02" nType="0">
            <Node pos="l" depth="3" NCoef="0" IVar="5" Cut="4.7665677070617676e+00" cType="1" res="-4.0201538801193237e-01" rms="1.9685472548007965e-01" purity="4.0988981723785400e-02" nType="0">
              <Node pos="l" depth="4" NCoef="0" IVar="-1" Cut="0.0000000000000000e+00" cType="1" res="-9.4820465892553329e-03" rms="1.6380819678306580e-01" purity="2.7926499024033546e-02" nType="-99"/>
              <Node pos="r" depth="4" NCoef="0" IVar="-1" Cut="0.0000000000000000e+00" cType="1" res="-6.8950555287301540e-03" rms="3.3895769715309143e-01" purity="1.3448278605937958e-01" nType="-99"/>
            </Node>
            <Node pos="r" depth="3" NCoef="0" IVar="-1" Cut="0.0000000000000000e+00" cType="1" res="-4.5473766513168812e-03" rms="4.3163779377937317e-01" purity="2.5627774000167847e-01" nType="-99"/>
          </Node>
          <Node pos="r" depth="2" NCoef="0" IVar="-1" Cut="0.0000000000000000e+00" cType="1" res="2.2853212431073189e-03" rms="4.7817337512969971e-01" purity="6.3375604152679443e-01" nType="-99"/>
        </Node>
      </Node>
    </BinaryTree>
    <BinaryTree type="DecisionTree" boostWeight="1.0000000000000000e+00" itree="13">
      <Node pos="s" depth="0" NCoef="0" IVar="7" Cut="9.6579745411872864e-02" cType="1" res="6.4917677082121372e-03" rms="4.5687884092330933e-01" purity="5.0075995922088623e-01" nType="0">
        <Node pos="l" depth="1" NCoef="0" IVar="8" Cut="5.3233498334884644e-01" cType="1" res="3.2346561551094055e-01" rms="3.2943841814994812e-01" purity="8.6095690727233887e-01" nType="0">
          <Node pos="l" depth="2" NCoef="0" IVar="0" Cut="1.9813261032104492e+01" cType="1" res="3.6880022287368774e-01" rms="2.7474236488342285e-01" purity="9.1145408153533936e-01" nType="0">
            <Node pos="l" depth="3" NCoef="0" IVar="10" Cut="9.3654680252075195e-01" cType="1" res="5.6485578417778015e-02" rms="4.8758298158645630e-01" purity="5.6481635570526123e-01" nType="0">
              <Node pos="l" depth="4" NCoef="0" IVar="-1" Cut="0.0000000000000000e+00" cType="1" res="-1.0406827786937356e-03" rms="4.9134248495101929e-01" purity="4.5215958356857300e-01" nType="-99"/>
              <Node pos="r" depth="4" NCoef="0" IVar="-1" Cut="0.0000000000000000e+00" cType="1" res="2.9930465389043093e-03" rms="4.6091422438621521e-01" purity="6.7150139808654785e-01" nType="-99"/>
            </Node>
            <Node pos="r" depth="3" NCoef="0" IVar="10" Cut="5.5113780498504639e-01" cType="1" res="4.0662026405334473e-01" rms="2.0638066530227661e-01" purity="9.5343053340911865e-01" nType="0">
              <Node pos="l" depth="4" NCoef="0" IVar="-1" Cut="0.0000000000000000e+00" cType="1" res="3.2775781583040953e-03" rms="4.5385164022445679e-01" purity="7.0170211791992188e-01" nType="-99"/>
              <Node pos="r" depth="4" NCoef="0" IVar="-1" Cut="0.0000000000000000e+00" cType="1" res="7.3943198658525944e-03" rms="1.6692592203617096e-01" purity="9.7026991844177246e-01" nType="-99"/>
            </Node>
          </Node>
          <Node pos="r" depth="2" NCoef="0" IVar="-1" Cut="0.0000000000000000e+00" cType="1" res="-4.3571148999035358e-03" rms="4.3548339605331421e-01" purity="2.6972752809524536e-01" nType="-99"/>
        </Node>
        <Node pos="r" depth="1" NCoef="0" IVar="5" Cut="7.6509323120117188e+00" cType="1" res="-3.3446869254112244e-01" rms="3.0364528298377991e-01" purity="1.1330554634332657e-01" nType="0">
          <Node pos="l" depth="2" NCoef="0" IVar="6" Cut="7.7234554290771484e-01" cType="1" res="-3.7702113389968872e-01" rms="2.4127893149852753e-01" purity="6.4565546810626984e-02" nType="0">
            <Node pos="l" depth="3" NCoef="0" IVar="8" Cut="3.5820853710174561e-01" cType="1" res="-3.9482495188713074e-01" rms="2.0288772881031036e-01" purity="4.3753162026405334e-02" nType="0">
              <Node pos="l" depth="4" NCoef="0" IVar="-1" Cut="0.0000000000000000e+00" cType="1" res="-7.7899582684040070e-03" rms="2.9460307955741882e-01" purity="9.6824347972869873e-02" nType="-99"/>
              <Node pos="r" depth="4" NCoef="0" IVar="-1" Cut="0.0000000000000000e+00" cType="1" res="-9.7054997459053993e-03" rms="1.1684414744377136e-01" purity="1.3941510580480099e-02" nType="-99"/>
            </Node>
            <Node pos="r" depth="3" NCoef="0" IVar="-1" Cut="0.0000000000000000e+00" cType="1" res="-3.9704530499875546e-03" rms="4.4637516140937805e-01" purity="2.8363966941833496e-01" nType="-99"/>
          </Node>
          <Node pos="r" depth="2" NCoef="0" IVar="-1" Cut="0.0000000000000000e+00" cType="1" res="2.0182607695460320e-03" rms="4.8085311055183411e-01" purity="6.1791461706161499e-01" nType="-99"/>
        </Node>
      </Node>
    </BinaryTree>
    <BinaryTree type="DecisionTree" boostWeight="1.0000000000000000e+00" itree="14">
      <Node pos="s" depth="0" NCoef="0" IVar="6" Cut="8.1498956680297852e-01" cType="1" res="5.9646852314472198e-03" rms="4.5389533042907715e-01" purity="4.9987995624542236e-01" nType="0">
        <Node pos="l" depth="1" NCoef="0" IVar="5" Cut="7.2085900306701660e+00" cType="1" res="-2.9206147789955139e-01" rms="3.4431707859039307e-01" purity="1.5960669517517090e-01" nType="0">
          <Node pos="l" depth="2" NCoef="0" IVar="7" Cut="9.6579745411872864e-02" cType="1" res="-3.5068163275718689e-01" rms="2.7745884656906128e-01" purity="9.2937029898166656e-02" nType="0">
            <Node pos="l" depth="3" NCoef="0" IVar="8" Cut="4.8755940794944763e-01" cType="1" res="-1.3191068172454834e-01" rms="4.6349084377288818e-01" purity="3.6327773332595825e-01" nType="0">
              <Node pos="l" depth="4" NCoef="0" IVar="-1" Cut="0.0000000000000000e+00" cType="1" res="3.2053919858299196e-04" rms="4.8901638388633728e-01" purity="5.3004044294357300e-01" nType="-99"/>
              <Node pos="r" depth="4" NCoef="0" IVar="-1" Cut="0.0000000000000000e+00" cType="1" res="-8.4328614175319672e-03" rms="2.7746284008026123e-01" purity="8.6009941995143890e-02" nType="-99"/>
            </Node>
            <Node pos="r" depth="3" NCoef="0" IVar="8" Cut="3.5820835828781128e-01" cType="1" res="-3.8568988442420959e-01" rms="2.1457281708717346e-01" purity="4.9676451832056046e-02" nType="0">
              <Node pos="l" depth="4" NCoef="0" IVar="-1" Cut="0.0000000000000000e+00" cType="1" res="-7.4277389794588089e-03" rms="3.1045168638229370e-01" purity="1.0996821522712708e-01" nType="-99"/>
              <Node pos="r" depth="4" NCoef="0" IVar="-1" Cut="0.0000000000000000e+00" cType="1" res="-9.6272248774766922e-03" rms="1.1769091337919235e-01" purity="1.4191062189638615e-02" nType="-99"/>
            </Node>
          </Node>
          <Node pos="r" depth="2" NCoef="0" IVar="3" Cut="1.1873217299580574e-02" cType="1" res="1.6772778332233429e-01" rms="4.5415607094764709e-01" purity="6.8253290653228760e-01" nType="0">
            <Node pos="l" depth="3" NCoef="0" IVar="-1" Cut="0.0000000000000000e+00" cType="1" res="5.9620644897222519e-03" rms="3.4400007128715515e-01" purity="8.5707825422286987e-01" nType="-99"/>
            <Node pos="r" depth="3" NCoef="0" IVar="-1" Cut="0.0000000000000000e+00" cType="1" res="-1.2648181291297078e-03" rms="4.8786935210227966e-01" purity="4.3804287910461426e-01" nType="-99"/>
          </Node>
        </Node>
        <Node pos="r" depth="1" NCoef="0" IVar="7" Cut="8.2149259746074677e-02" cType="1" res="3.6220091581344604e-01" rms="2.7838742733001709e-01" purity="9.0661495923995972e-01" nType="0">
          <Node pos="l" depth="2" NCoef="0" IVar="0" Cut="2.3794050216674805e+01" cType="1" res="3.9376974105834961e-01" rms="2.2582650184631348e-01" purity="9.4236683845520020e-01" nType="0">
            <Node pos="l" depth="3" NCoef="0" IVar="-1" Cut="0.0000000000000000e+00" cType="1" res="4.0765181183815002e-03" rms="4.2518955469131470e-01" purity="7.4618953466415405e-01" nType="-99"/>
            <Node pos="r" depth="3" NCoef="0" IVar="10" Cut="7.2009617090225220e-01" cType="1" res="4.1737356781959534e-01" rms="1.6922475397586823e-01" purity="9.6915632486343384e-01" nType="0">
              <Node pos="l" depth="4" NCoef="0" IVar="-1" Cut="0.0000000000000000e+00" cType="1" res="5.0445292145013809e-03" rms="3.8528603315353394e-01" purity="8.1377696990966797e-01" nType="-99"/>
              <Node pos="r" depth="4" NCoef="0" IVar="-1" Cut="0.0000000000000000e+00" cType="1" res="7.5252186506986618e-03" rms="1.2578549981117249e-01" purity="9.8327666521072388e-01" nType="-99"/>
            </Node>
          </Node>
          <Node pos="r" depth="2" NCoef="0" IVar="-1" Cut="0.0000000000000000e+00" cType="1" res="-5.6353479158133268e-04" rms="4.9041634798049927e-01" purity="4.6425667405128479e-01" nType="-99"/>
        </Node>
      </Node>
    </BinaryTree>
    <BinaryTree type="DecisionTree" boostWeight="1.0000000000000000e+00" itree="15">
      <Node pos="s" depth="0" NCoef="0" IVar="7" Cut="7.6133675873279572e-02" cType="1" res="1.0457765311002731e-02" rms="4.5082935690879822e-01" purity="5.0451385974884033e-01" nType="0">
        <Node pos="l" depth="1" NCoef="0" IVar="0" Cut="1.5404915809631348e+01" cType="1" res="3.3632564544677734e-01" rms="3.0587255954742432e-01" purity="8.8207906484603882e-01" nType="0">
          <Node pos="l" depth="2" NCoef="0" IVar="-1" Cut="0.0000000000000000e+00" cType="1" res="-3.0302847735583782e-03" rms="4.6729633212089539e-01" purity="3.4316235780715942e-01" nType="-99"/>
          <Node pos="r" depth="2" NCoef="0" IVar="8" Cut="4.8755916953086853e-01" cType="1" res="3.7815698981285095e-01" rms="2.4653004109859467e-01" purity="9.2866778373718262e-01" nType="0">
            <Node pos="l" depth="3" NCoef="0" IVar="10" Cut="5.9088373184204102e-01" cType="1" res="4.0319505333900452e-01" rms="1.9807671010494232e-01" purity="9.5754313468933105e-01" nType="0">
              <Node pos="l" depth="4" NCoef="0" IVar="-1" Cut="0.0000000000000000e+00" cType="1" res="3.6214988213032484e-03" rms="4.4261732697486877e-01" purity="7.2812604904174805e-01" nType="-99"/>
              <Node pos="r" depth="4" NCoef="0" IVar="-1" Cut="0.0000000000000000e+00" cType="1" res="7.3268413543701172e-03" rms="1.5992143750190735e-01" purity="9.7299855947494507e-01" nType="-99"/>
            </Node>
            <Node pos="r" depth="3" NCoef="0" IVar="-1" Cut="0.0000000000000000e+00" cType="1" res="-1.0077621554955840e-03" rms="4.8488846421241760e-01" purity="4.3452653288841248e-01" nType="-99"/>
          </Node>
        </Node>
        <Node pos="r" depth="1" NCoef="0" IVar="5" Cut="8.7949476242065430e+00" cType="1" res="-3.0835554003715515e-01" rms="3.2408127188682556e-01" purity="1.3512237370014191e-01" nType="0">
          <Node pos="l" depth="2" NCoef="0" IVar="6" Cut="7.8552675247192383e-01" cType="1" res="-3.5042542219161987e-01" rms="2.7206251025199890e-01" purity="8.6372025310993195e-02" nType="0">
            <Node pos="l" depth="3" NCoef="0" IVar="5" Cut="5.6949067115783691e+00" cType="1" res="-3.7552851438522339e-01" rms="2.2684459388256073e-01" purity="5.6455578655004501e-02" nType="0">
              <Node pos="l" depth="4" NCoef="0" IVar="-1" Cut="0.0000000000000000e+00" cType="1" res="-8.9135533198714256e-03" rms="1.9717778265476227e-01" purity="4.1558850556612015e-02" nType="-99"/>
              <Node pos="r" depth="4" NCoef="0" IVar="-1" Cut="0.0000000000000000e+00" cType="1" res="-4.5294808223843575e-03" rms="4.2082890868186951e-01" purity="2.3960247635841370e-01" nType="-99"/>
            </Node>
            <Node pos="r" depth="3" NCoef="0" IVar="-1" Cut="0.0000000000000000e+00" cType="1" res="-2.3561185225844383e-03" rms="4.7339224815368652e-01" purity="3.6648386716842651e-01" nType="-99"/>
          </Node>
          <Node pos="r" depth="2" NCoef="0" IVar="-1" Cut="0.0000000000000000e+00" cType="1" res="3.4550898708403111e-03" rms="4.5196890830993652e-01" purity="7.0785379409790039e-01" nType="-99"/>
        </Node>
      </Node>
    </BinaryTree>
    <BinaryTree type="DecisionTree" boostWeight="1.0000000000000000e+00" itree="16">
      <Node pos="s" depth="0" NCoef="0" IVar="6" Cut="8.1498956680297852e-01" cType="1" res="7.7908588573336601e-03" rms="4.4791898131370544e-01" purity="5.0113403797149658e-01" nType="0">
        <Node pos="l" depth="1" NCoef="0" IVar="5" Cut="7.2240867614746094e+00" cType="1" res="-2.8676956892013550e-01" rms="3.4070685505867004e-01" purity="1.5837237238883972e-01" nType="0">
          <Node pos="l" depth="2" NCoef="0" IVar="7" Cut="9.6579745411872864e-02" cType="1" res="-3.4178310632705688e-01" rms="2.7821972966194153e-01" purity="9.4536490738391876e-02" nType="0">
            <Node pos="l" depth="3" NCoef="0" IVar="8" Cut="4.8755940794944763e-01" cType="1" res="-1.2814030051231384e-01" rms="4.6297958493232727e-01" purity="3.6605167388916016e-01" nType="0">
              <Node pos="l" depth="4" NCoef="0" IVar="-1" Cut="0.0000000000000000e+00" cType="1" res="2.0830622815992683e-04" rms="4.8895284533500671e-01" purity="5.2544873952865601e-01" nType="-99"/>
              <Node pos="r" depth="4" NCoef="0" IVar="-1" Cut="0.0000000000000000e+00" cType="1" res="-8.1861997023224831e-03" rms="2.8529298305511475e-01" purity="9.1442912817001343e-02" nType="-99"/>
            </Node>
            <Node pos="r" depth="3" NCoef="0" IVar="8" Cut="3.5820829868316650e-01" cType="1" res="-3.7695398926734924e-01" rms="2.1473447978496552e-01" purity="4.9838416278362274e-02" nType="0">
              <Node pos="l" depth="4" NCoef="0" IVar="-1" Cut="0.0000000000000000e+00" cType="1" res="-7.2954548522830009e-03" rms="3.0965375900268555e-01" purity="1.0944126546382904e-01" nType="-99"/>
              <Node pos="r" depth="4" NCoef="0" IVar="-1" Cut="0.0000000000000000e+00" cType="1" res="-9.4412621110677719e-03" rms="1.2229755520820618e-01" purity="1.5365354716777802e-02" nType="-99"/>
            </Node>
          </Node>
          <Node pos="r" depth="2" NCoef="0" IVar="3" Cut="9.8395124077796936e-03" cType="1" res="1.6684220731258392e-01" rms="4.5194619894027710e-01" purity="6.8472832441329956e-01" nType="0">
            <Node pos="l" depth="3" NCoef="0" IVar="-1" Cut="0.0000000000000000e+00" cType="1" res="6.0118963010609150e-03" rms="3.3534768223762512e-01" purity="8.6518633365631104e-01" nType="-99"/>
            <Node pos="r" depth="3" NCoef="0" IVar="-1" Cut="0.0000000000000000e+00" cType="1" res="-1.0722926817834377e-03" rms="4.8821955919265747e-01" purity="4.4889706373214722e-01" nType="-99"/>
          </Node>
        </Node>
        <Node pos="r" depth="1" NCoef="0" IVar="7" Cut="7.3974721133708954e-02" cType="1" res="3.5596993565559387e-01" rms="2.7709898352622986e-01" purity="9.0628838539123535e-01" nType="0">
          <Node pos="l" depth="2" NCoef="0" IVar="0" Cut="1.9818756103515625e+01" cType="1" res="3.9012372493743896e-01" rms="2.1863295137882233e-01" purity="9.4565355777740479e-01" nType="0">
            <Node pos="l" depth="3" NCoef="0" IVar="-1" Cut="0.0000000000000000e+00" cType="1" res="2.7378527447581291e-03" rms="4.6437156200408936e-01" purity="6.6216802597045898e-01" nType="-99"/>
            <Node pos="r" depth="3" NCoef="0" IVar="10" Cut="7.0073723793029785e-01" cType="1" res="4.1071617603302002e-01" rms="1.6796918213367462e-01" purity="9.6950811147689819e-01" nType="0">
              <Node pos="l" depth="4" NCoef="0" IVar="-1" Cut="0.0000000000000000e+00" cType="1" res="4.8561505973339081e-03" rms="3.9163213968276978e-01" purity="8.0622935295104980e-01" nType="-99"/>
              <Node pos="r" depth="4" NCoef="0" IVar="-1" Cut="0.0000000000000000e+00" cType="1" res="7.4247810989618301e-03" rms="1.2545149028301239e-01" purity="9.8330372571945190e-01" nType="-99"/>
            </Node>
          </Node>
          <Node pos="r" depth="2" NCoef="0" IVar="-1" Cut="0.0000000000000000e+00" cType="1" res="9.9621320259757340e-05" rms="4.8933416604995728e-01" purity="5.0184774398803711e-01" nType="-99"/>
        </Node>
      </Node>
    </BinaryTree>
    <BinaryTree type="DecisionTree" boostWeight="1.0000000000000000e+00" itree="17">
      <Node pos="s" depth="0" NCoef="0" IVar="7" Cut="8.4987640380859375e-02" cType="1" res="5.2100899629294872e-03" rms="4.4484448432922363e-01" purity="4.9774917960166931e-01" nType="0">
        <Node pos="l" depth="1" NCoef="0" IVar="8" Cut="5.6218582391738892e-01" cType="1" res="3.2258072495460510e-01" rms="3.1395083665847778e-01" purity="8.7256854772567749e-01" nType="0">
          <Node pos="l" depth="2" NCoef="0" IVar="0" Cut="1.9813261032104492e+01" cType="1" res="3.6141970753669739e-01" rms="2.6501312851905823e-01" purity="9.1705805063247681e-01" nType="0">
            <Node pos="l" depth="3" NCoef="0" IVar="-1" Cut="0.0000000000000000e+00" cType="1" res="1.4115577796474099e-03" rms="4.8302364349365234e-01" purity="5.8584415912628174e-01" nType="-99"/>
            <Node pos="r" depth="3" NCoef="0" IVar="10" Cut="6.0069274902343750e-01" cType="1" res="3.9673438668251038e-01" rms="1.9701567292213440e-01" purity="9.5768028497695923e-01" nType="0">
              <Node pos="l" depth="4" NCoef="0" IVar="-1" Cut="0.0000000000000000e+00" cType="1" res="3.6585195921361446e-03" rms="4.3917468190193176e-01" purity="7.3308330774307251e-01" nType="-99"/>
              <Node pos="r" depth="4" NCoef="0" IVar="-1" Cut="0.0000000000000000e+00" cType="1" res="7.2462297976016998e-03" rms="1.5641631186008453e-01" purity="9.7406911849975586e-01" nType="-99"/>
            </Node>
          </Node>
          <Node pos="r" depth="2" NCoef="0" IVar="-1" Cut="0.0000000000000000e+00" cType="1" res="-4.6469923108816147e-03" rms="4.2317041754722595e-01" purity="2.5151586532592773e-01" nType="-99"/>
        </Node>
        <Node pos="r" depth="1" NCoef="0" IVar="5" Cut="9.9793434143066406e+00" cType="1" res="-3.1462377309799194e-01" rms="3.0688664317131042e-01" purity="1.2002070993185043e-01" nType="0">
          <Node pos="l" depth="2" NCoef="0" IVar="7" Cut="1.6958859562873840e-01" cType="1" res="-3.4946686029434204e-01" rms="2.6131147146224976e-01" purity="7.9319529235363007e-02" nType="0">
            <Node pos="l" depth="3" NCoef="0" IVar="8" Cut="4.0298441052436829e-01" cType="1" res="-2.0589908957481384e-01" rms="4.1646406054496765e-01" purity="2.4316112697124481e-01" nType="0">
              <Node pos="l" depth="4" NCoef="0" IVar="-1" Cut="0.0000000000000000e+00" cType="1" res="-1.3811171520501375e-03" rms="4.7927910089492798e-01" purity="3.9451304078102112e-01" nType="-99"/>
              <Node pos="r" depth="4" NCoef="0" IVar="-1" Cut="0.0000000000000000e+00" cType="1" res="-8.6049372330307961e-03" rms="2.2578157484531403e-01" purity="5.5852402001619339e-02" nType="-99"/>
            </Node>
            <Node pos="r" depth="3" NCoef="0" IVar="5" Cut="5.7584047317504883e+00" cType="1" res="-3.7844479084014893e-01" rms="2.0508122444152832e-01" purity="4.6249527484178543e-02" nType="0">
              <Node pos="l" depth="4" NCoef="0" IVar="-1" Cut="0.0000000000000000e+00" cType="1" res="-9.0568875893950462e-03" rms="1.6935101151466370e-01" purity="3.0237693339586258e-02" nType="-99"/>
              <Node pos="r" depth="4" NCoef="0" IVar="-1" Cut="0.0000000000000000e+00" cType="1" res="-4.9511329270899296e-03" rms="4.1051596403121948e-01" purity="2.2617495059967041e-01" nType="-99"/>
            </Node>
          </Node>
          <Node pos="r" depth="2" NCoef="0" IVar="-1" Cut="0.0000000000000000e+00" cType="1" res="4.1182418353855610e-03" rms="4.3089857697486877e-01" purity="7.4899023771286011e-01" nType="-99"/>
        </Node>
      </Node>
    </BinaryTree>
    <BinaryTree type="DecisionTree" boostWeight="1.0000000000000000e+00" itree="18">
      <Node pos="s" depth="0" NCoef="0" IVar="7" Cut="8.4987640380859375e-02" cType="1" res="1.0907378047704697e-02" rms="4.4208425283432007e-01" purity="5.0378936529159546e-01" nType="0">
        <Node pos="l" depth="1" NCoef="0" IVar="8" Cut="4.7263085842132568e-01" cType="1" res="3.2212814688682556e-01" rms="3.1032827496528625e-01" purity="8.7517207860946655e-01" nType="0">
          <Node pos="l" depth="2" NCoef="0" IVar="0" Cut="1.6481626510620117e+01" cType="1" res="3.6419376730918884e-01" rms="2.5466075539588928e-01" purity="9.2398357391357422e-01" nType="0">
            <Node pos="l" depth="3" NCoef="0" IVar="-1" Cut="0.0000000000000000e+00" cType="1" res="8.0424280895385891e-05" rms="4.9553453922271729e-01" purity="5.0795531272888184e-01" nType="-99"/>
            <Node pos="r" depth="3" NCoef="0" IVar="10" Cut="5.9050792455673218e-01" cType="1" res="3.9241254329681396e-01" rms="1.9933281838893890e-01" purity="9.5658618211746216e-01" nType="0">
              <Node pos="l" depth="4" NCoef="0" IVar="-1" Cut="0.0000000000000000e+00" cType="1" res="3.3810571767389774e-03" rms="4.4609159231185913e-01" purity="7.1905028820037842e-01" nType="-99"/>
              <Node pos="r" depth="4" NCoef="0" IVar="-1" Cut="0.0000000000000000e+00" cType="1" res="7.1794092655181885e-03" rms="1.6050843894481659e-01" purity="9.7264635562896729e-01" nType="-99"/>
            </Node>
          </Node>
          <Node pos="r" depth="2" NCoef="0" IVar="-1" Cut="0.0000000000000000e+00" cType="1" res="-3.0170674435794353e-03" rms="4.5551651716232300e-01" purity="3.3206501603126526e-01" nType="-99"/>
        </Node>
        <Node pos="r" depth="1" NCoef="0" IVar="5" Cut="8.2696228027343750e+00" cType="1" res="-3.0742216110229492e-01" rms="3.1053707003593445e-01" purity="1.2392365187406540e-01" nType="0">
          <Node pos="l" depth="2" NCoef="0" IVar="6" Cut="7.5764542818069458e-01" cType="1" res="-3.4695926308631897e-01" rms="2.5738799571990967e-01" purity="7.6174184679985046e-02" nType="0">
            <Node pos="l" depth="3" NCoef="0" IVar="5" Cut="4.6523132324218750e+00" cType="1" res="-3.7244027853012085e-01" rms="2.0523668825626373e-01" purity="4.5379355549812317e-02" nType="0">
              <Node pos="l" depth="4" NCoef="0" IVar="-1" Cut="0.0000000000000000e+00" cType="1" res="-8.9673157781362534e-03" rms="1.6912941634654999e-01" purity="3.0071137472987175e-02" nType="-99"/>
              <Node pos="r" depth="4" NCoef="0" IVar="-1" Cut="0.0000000000000000e+00" cType="1" res="-6.2715676613152027e-03" rms="3.4669327735900879e-01" purity="1.4453797042369843e-01" nType="-99"/>
            </Node>
            <Node pos="r" depth="3" NCoef="0" IVar="8" Cut="2.6865398883819580e-01" cType="1" res="-1.6530995070934296e-01" rms="4.4790264964103699e-01" purity="2.9570484161376953e-01" nType="0">
              <Node pos="l" depth="4" NCoef="0" IVar="-1" Cut="0.0000000000000000e+00" cType="1" res="-4.1523584513925016e-04" rms="4.9340027570724487e-01" purity="4.5203304290771484e-01" nType="-99"/>
              <Node pos="r" depth="4" NCoef="0" IVar="-1" Cut="0.0000000000000000e+00" cType="1" res="-7.4774404056370258e-03" rms="3.1048199534416199e-01" purity="1.1129008233547211e-01" nType="-99"/>
            </Node>
          </Node>
          <Node pos="r" depth="2" NCoef="0" IVar="-1" Cut="0.0000000000000000e+00" cType="1" res="2.5536690372973680e-03" rms="4.6998116374015808e-01" purity="6.5891176462173462e-01" nType="-99"/>
        </Node>
      </Node>
    </BinaryTree>
    <BinaryTree type="DecisionTree" boostWeight="1.0000000000000000e+00" itree="19">
      <Node pos="s" depth="0" NCoef="0" IVar="7" Cut="8.4987640380859375e-02" cType="1" res="6.5462812781333923e-03" rms="4.3927845358848572e-01" purity="4.9854913353919983e-01" nType="0">
        <Node pos="l" depth="1" NCoef="0" IVar="8" Cut="5.4726052284240723e-01" cType="1" res="3.1673708558082581e-01" rms="3.1245094537734985e-01" purity="8.7244880199432373e-01" nType="0">
          <Node pos="l" depth="2" NCoef="0" IVar="0" Cut="1.5391757011413574e+01" cType="1" res="3.5475242137908936e-01" rms="2.6459211111068726e-01" purity="9.1675752401351929e-01" nType="0">
            <Node pos="l" depth="3" NCoef="0" IVar="-1" Cut="0.0000000000000000e+00" cType="1" res="-1.1874964693561196e-03" rms="4.9334830045700073e-01" purity="4.3923670053482056e-01" nType="-99"/>
            <Node pos="r" depth="3" NCoef="0" IVar="10" Cut="5.4108387231826782e-01" cType="1" res="3.8329890370368958e-01" rms="2.1312119066715240e-01" purity="9.4966417551040649e-01" nType="0">
              <Node pos="l" depth="4" NCoef="0" IVar="-1" Cut="0.0000000000000000e+00" cType="1" res="2.9197381809353828e-03" rms="4.5762017369270325e-01" purity="6.9310873746871948e-01" nType="-99"/>
              <Node pos="r" depth="4" NCoef="0" IVar="-1" Cut="0.0000000000000000e+00" cType="1" res="7.0510674268007278e-03" rms="1.7626203596591949e-01" purity="9.6647006273269653e-01" nType="-99"/>
            </Node>
          </Node>
          <Node pos="r" depth="2" NCoef="0" IVar="-1" Cut="0.0000000000000000e+00" cType="1" res="-4.4085709378123283e-03" rms="4.2808896303176880e-01" purity="2.5997671484947205e-01" nType="-99"/>
        </Node>
        <Node pos="r" depth="1" NCoef="0" IVar="5" Cut="7.6509323120117188e+00" cType="1" res="-3.0546149611473083e-01" rms="3.0778756737709045e-01" purity="1.2245932221412659e-01" nType="0">
          <Node pos="l" depth="2" NCoef="0" IVar="6" Cut="7.7079534530639648e-01" cType="1" res="-3.4879794716835022e-01" rms="2.4718594551086426e-01" purity="6.9804310798645020e-02" nType="0">
            <Node pos="l" depth="3" NCoef="0" IVar="8" Cut="3.6318364739418030e-01" cType="1" res="-3.6944618821144104e-01" rms="2.0258206129074097e-01" purity="4.4066499918699265e-02" nType="0">
              <Node pos="l" depth="4" NCoef="0" IVar="-1" Cut="0.0000000000000000e+00" cType="1" res="-7.3531083762645721e-03" rms="2.9467168450355530e-01" purity="9.7603790462017059e-02" nType="-99"/>
              <Node pos="r" depth="4" NCoef="0" IVar="-1" Cut="0.0000000000000000e+00" cType="1" res="-9.2637967318296432e-03" rms="1.1453498154878616e-01" purity="1.3490384444594383e-02" nType="-99"/>
            </Node>
            <Node pos="r" depth="3" NCoef="0" IVar="-1" Cut="0.0000000000000000e+00" cType="1" res="-3.4697407390922308e-03" rms="4.4899031519889832e-01" purity="2.9782676696777344e-01" nType="-99"/>
          </Node>
          <Node pos="r" depth="2" NCoef="0" IVar="-1" Cut="0.0000000000000000e+00" cType="1" res="2.0855888724327087e-03" rms="4.7599986195564270e-01" purity="6.2692701816558838e-01" nType="-99"/>
        </Node>
      </Node>
    </BinaryTree>
    <BinaryTree type="DecisionTree" boostWeight="1.0000000000000000e+00" itree="20">
      <Node pos="s" depth="0" NCoef="0" IVar="6" Cut="8.1498956680297852e-01" cType="1" res="5.8805788867175579e-03" rms="4.3656432628631592e-01" purity="4.9748364090919495e-01" nType="0">
        <Node pos="l" depth="1" NCoef="0" IVar="5" Cut="7.2459335327148438e+00" cType="1" res="-2.7226430177688599e-01" rms="3.3738747239112854e-01" purity="1.6153658926486969e-01" nType="0">
          <Node pos="l" depth="2" NCoef="0" IVar="7" Cut="8.4987640380859375e-02" cType="1" res="-3.2781302928924561e-01" rms="2.7483397722244263e-01" purity="9.4794541597366333e-02" nType="0">
            <Node pos="l" depth="3" NCoef="0" IVar="8" Cut="4.3283334374427795e-01" cType="1" res="-1.1459189653396606e-01" rms="4.6307113766670227e-01" purity="3.8506621122360229e-01" nType="0">
              <Node pos="l" depth="4" NCoef="0" IVar="-1" Cut="0.0000000000000000e+00" cType="1" res="6.1777740484103560e-04" rms="4.8458871245384216e-01" purity="5.5806171894073486e-01" nType="-99"/>
              <Node pos="r" depth="4" NCoef="0" IVar="-1" Cut="0.0000000000000000e+00" cType="1" res="-7.5498400256037712e-03" rms="3.1393799185752869e-01" purity="1.1762509495019913e-01" nType="-99"/>
            </Node>
            <Node pos="r" depth="3" NCoef="0" IVar="8" Cut="3.4328299760818481e-01" cType="1" res="-3.5990446805953979e-01" rms="2.1623036265373230e-01" purity="5.1106408238410950e-02" nType="0">
              <Node pos="l" depth="4" NCoef="0" IVar="-1" Cut="0.0000000000000000e+00" cType="1" res="-6.9395219907164574e-03" rms="3.1380620598793030e-01" purity="1.1383409798145294e-01" nType="-99"/>
              <Node pos="r" depth="4" NCoef="0" IVar="-1" Cut="0.0000000000000000e+00" cType="1" res="-9.1545479372143745e-03" rms="1.2260716408491135e-01" purity="1.5527181327342987e-02" nType="-99"/>
            </Node>
          </Node>
          <Node pos="r" depth="2" NCoef="0" IVar="3" Cut="9.7685381770133972e-03" cType="1" res="1.7016154527664185e-01" rms="4.4556945562362671e-01" purity="6.9311296939849854e-01" nType="0">
            <Node pos="l" depth="3" NCoef="0" IVar="-1" Cut="0.0000000000000000e+00" cType="1" res="5.9210956096649170e-03" rms="3.3170965313911438e-01" purity="8.6686146259307861e-01" nType="-99"/>
            <Node pos="r" depth="3" NCoef="0" IVar="-1" Cut="0.0000000000000000e+00" cType="1" res="-1.0322305606678128e-03" rms="4.8689857125282288e-01" purity="4.5136895775794983e-01" nType="-99"/>
          </Node>
        </Node>
        <Node pos="r" depth="1" NCoef="0" IVar="7" Cut="7.3974721133708954e-02" cType="1" res="3.4333801269531250e-01" rms="2.7563580870628357e-01" purity="9.0506917238235474e-01" nType="0">
          <Node pos="l" depth="2" NCoef="0" IVar="0" Cut="1.9818756103515625e+01" cType="1" res="3.7596303224563599e-01" rms="2.1991868317127228e-01" purity="9.4416308403015137e-01" nType="0">
            <Node pos="l" depth="3" NCoef="0" IVar="-1" Cut="0.0000000000000000e+00" cType="1" res="2.7392341289669275e-03" rms="4.6114012598991394e-01" purity="6.6601473093032837e-01" nType="-99"/>
            <Node pos="r" depth="3" NCoef="0" IVar="10" Cut="6.6047394275665283e-01" cType="1" res="3.9545932412147522e-01" rms="1.7203624546527863e-01" purity="9.6768462657928467e-01" nType="0">
              <Node pos="l" depth="4" NCoef="0" IVar="-1" Cut="0.0000000000000000e+00" cType="1" res="4.5788404531776905e-03" rms="3.9936715364456177e-01" purity="7.9554331302642822e-01" nType="-99"/>
              <Node pos="r" depth="4" NCoef="0" IVar="-1" Cut="0.0000000000000000e+00" cType="1" res="7.2012557648122311e-03" rms="1.3314652442932129e-01" purity="9.8107051849365234e-01" nType="-99"/>
            </Node>
          </Node>
          <Node pos="r" depth="2" NCoef="0" IVar="-1" Cut="0.0000000000000000e+00" cType="1" res="9.1629124653991312e-05" rms="4.8667266964912415e-01" purity="4.9923041462898254e-01" nType="-99"/>
        </Node>
      </Node>
    </BinaryTree>
    <BinaryTree type="DecisionTree" boostWeight="1.0000000000000000e+00" itree="21">
      <Node pos="s" depth="0" NCoef="0" IVar="7" Cut="9.6579745411872864e-02" cType="1" res="7.7984938398003578e-03" rms="4.3393844366073608e-01" purity="4.9872797727584839e-01" nType="0">
        <Node pos="l" depth="1" NCoef="0" IVar="6" Cut="8.0086874961853027e-01" cType="1" res="3.0320355296134949e-01" rms="3.2014268636703491e-01" purity="8.6171430349349976e-01" nType="0">
          <Node pos="l" depth="2" NCoef="0" IVar="5" Cut="4.8452391624450684e+00" cType="1" res="-2.7217246592044830e-02" rms="4.7075515985488892e-01" purity="4.7417354583740234e-01" nType="0">
            <Node pos="l" depth="3" NCoef="0" IVar="-1" Cut="0.0000000000000000e+00" cType="1" res="-4.0035191923379898e-03" rms="4.3522846698760986e-01" purity="2.9293888807296753e-01" nType="-99"/>
            <Node pos="r" depth="3" NCoef="0" IVar="-1" Cut="0.0000000000000000e+00" cType="1" res="4.4036386534571648e-03" rms="3.9971360564231873e-01" purity="7.6845151185989380e-01" nType="-99"/>
          </Node>
          <Node pos="r" depth="2" NCoef="0" IVar="0" Cut="1.9818756103515625e+01" cType="1" res="3.6449563503265381e-01" rms="2.3745782673358917e-01" purity="9.3360203504562378e-01" nType="0">
            <Node pos="l" depth="3" NCoef="0" IVar="-1" Cut="0.0000000000000000e+00" cType="1" res="2.5792254600673914e-03" rms="4.6479398012161255e-01" purity="6.5601515769958496e-01" nType="-99"/>
            <Node pos="r" depth="3" NCoef="0" IVar="10" Cut="6.6044825315475464e-01" cType="1" res="3.8551536202430725e-01" rms="1.9086506962776184e-01" purity="9.5920419692993164e-01" nType="0">
              <Node pos="l" depth="4" NCoef="0" IVar="-1" Cut="0.0000000000000000e+00" cType="1" res="4.1728736832737923e-03" rms="4.1432872414588928e-01" purity="7.7111977338790894e-01" nType="-99"/>
              <Node pos="r" depth="4" NCoef="0" IVar="-1" Cut="0.0000000000000000e+00" cType="1" res="7.0792511105537415e-03" rms="1.5172383189201355e-01" purity="9.7471779584884644e-01" nType="-99"/>
            </Node>
          </Node>
        </Node>
        <Node pos="r" depth="1" NCoef="0" IVar="5" Cut="9.9793434143066406e+00" cType="1" res="-3.0517476797103882e-01" rms="2.9801172018051147e-01" purity="1.1415427178144455e-01" nType="0">
          <Node pos="l" depth="2" NCoef="0" IVar="6" Cut="7.5029540061950684e-01" cType="1" res="-3.3608147501945496e-01" rms="2.5656419992446899e-01" purity="7.6517544686794281e-02" nType="0">
            <Node pos="l" depth="3" NCoef="0" IVar="5" Cut="5.7635769844055176e+00" cType="1" res="-3.5789757966995239e-01" rms="2.1085862815380096e-01" purity="4.9090117216110229e-02" nType="0">
              <Node pos="l" depth="4" NCoef="0" IVar="-1" Cut="0.0000000000000000e+00" cType="1" res="-8.6871450766921043e-03" rms="1.7612528800964355e-01" purity="3.2627232372760773e-02" nType="-99"/>
              <Node pos="r" depth="4" NCoef="0" IVar="-1" Cut="0.0000000000000000e+00" cType="1" res="-4.3181036598980427e-03" rms="4.2111203074455261e-01" purity="2.4456496536731720e-01" nType="-99"/>
            </Node>
            <Node pos="r" depth="3" NCoef="0" IVar="8" Cut="3.1840643286705017e-01" cType="1" res="-1.8405118584632874e-01" rms="4.3390533328056335e-01" purity="2.6765167713165283e-01" nType="0">
              <Node pos="l" depth="4" NCoef="0" IVar="-1" Cut="0.0000000000000000e+00" cType="1" res="-9.7048887982964516e-04" rms="4.8808923363685608e-01" purity="4.1643133759498596e-01" nType="-99"/>
              <Node pos="r" depth="4" NCoef="0" IVar="-1" Cut="0.0000000000000000e+00" cType="1" res="-8.0435266718268394e-03" rms="2.6999232172966003e-01" purity="8.0562800168991089e-02" nType="-99"/>
            </Node>
          </Node>
          <Node pos="r" depth="2" NCoef="0" IVar="-1" Cut="0.0000000000000000e+00" cType="1" res="3.7706668954342604e-03" rms="4.3877398967742920e-01" purity="7.3409801721572876e-01" nType="-99"/>
        </Node>
      </Node>
    </BinaryTree>
    <BinaryTree type="DecisionTree" boostWeight="1.0000000000000000e+00" itree="22">
      <Node pos="s" depth="0" NCoef="0" IVar="6" Cut="8.1498956680297852e-01" cType="1" res="8.5464864969253540e-03" rms="4.3107065558433533e-01" purity="4.9952653050422668e-01" nType="0">
        <Node pos="l" depth="1" NCoef="0" IVar="5" Cut="7.2372484207153320e+00" cType="1" res="-2.6556110382080078e-01" rms="3.3570000529289246e-01" purity="1.6164089739322662e-01" nType="0">
          <Node pos="l" depth="2" NCoef="0" IVar="7" Cut="9.6579745411872864e-02" cType="1" res="-3.1985357403755188e-01" rms="2.7470046281814575e-01" purity="9.4952687621116638e-02" nType="0">
            <Node pos="l" depth="3" NCoef="0" IVar="8" Cut="4.5770859718322754e-01" cType="1" res="-1.2344697862863541e-01" rms="4.5748248696327209e-01" purity="3.6731758713722229e-01" nType="0">
              <Node pos="l" depth="4" NCoef="0" IVar="-1" Cut="0.0000000000000000e+00" cType="1" res="4.2720415513031185e-04" rms="4.8534643650054932e-01" purity="5.4056507349014282e-01" nType="-99"/>
              <Node pos="r" depth="4" NCoef="0" IVar="-1" Cut="0.0000000000000000e+00" cType="1" res="-7.9226857051253319e-03" rms="2.8491333127021790e-01" purity="9.2828482389450073e-02" nType="-99"/>
            </Node>
            <Node pos="r" depth="3" NCoef="0" IVar="8" Cut="3.5820829868316650e-01" cType="1" res="-3.5189795494079590e-01" rms="2.1518592536449432e-01" purity="5.0515446811914444e-02" nType="0">
              <Node pos="l" depth="4" NCoef="0" IVar="-1" Cut="0.0000000000000000e+00" cType="1" res="-6.8266903981566429e-03" rms="3.1226918101310730e-01" purity="1.1235251277685165e-01" nType="-99"/>
              <Node pos="r" depth="4" NCoef="0" IVar="-1" Cut="0.0000000000000000e+00" cType="1" res="-9.0372879058122635e-03" rms="1.1887390911579132e-01" purity="1.4516305178403854e-02" nType="-99"/>
            </Node>
          </Node>
          <Node pos="r" depth="2" NCoef="0" IVar="3" Cut="1.3852086849510670e-02" cType="1" res="1.6083247959613800e-01" rms="4.4738879799842834e-01" purity="6.8538624048233032e-01" nType="0">
            <Node pos="l" depth="3" NCoef="0" IVar="-1" Cut="0.0000000000000000e+00" cType="1" res="5.8068181388080120e-03" rms="3.3624631166458130e-01" purity="8.6329513788223267e-01" nType="-99"/>
            <Node pos="r" depth="3" NCoef="0" IVar="-1" Cut="0.0000000000000000e+00" cType="1" res="-1.4497666852548718e-03" rms="4.8342585563659668e-01" purity="4.2910188436508179e-01" nType="-99"/>
          </Node>
        </Node>
        <Node pos="r" depth="1" NCoef="0" IVar="0" Cut="1.5406345367431641e+01" cType="1" res="3.3765846490859985e-01" rms="2.7403795719146729e-01" purity="9.0521466732025146e-01" nType="0">
          <Node pos="l" depth="2" NCoef="0" IVar="-1" Cut="0.0000000000000000e+00" cType="1" res="-1.6098084161058068e-03" rms="4.8615205287933350e-01" purity="4.1577175259590149e-01" nType="-99"/>
          <Node pos="r" depth="2" NCoef="0" IVar="8" Cut="3.6812937259674072e-01" cType="1" res="3.6491724848747253e-01" rms="2.2900849580764771e-01" purity="9.3715518712997437e-01" nType="0">
            <Node pos="l" depth="3" NCoef="0" IVar="10" Cut="6.2058049440383911e-01" cType="1" res="3.8526758551597595e-01" rms="1.8655407428741455e-01" purity="9.6086895465850830e-01" nType="0">
              <Node pos="l" depth="4" NCoef="0" IVar="-1" Cut="0.0000000000000000e+00" cType="1" res="3.6234362050890923e-03" rms="4.3166878819465637e-01" purity="7.3713600635528564e-01" nType="-99"/>
              <Node pos="r" depth="4" NCoef="0" IVar="-1" Cut="0.0000000000000000e+00" cType="1" res="7.0932572707533836e-03" rms="1.4529415965080261e-01" purity="9.7696489095687866e-01" nType="-99"/>
            </Node>
            <Node pos="r" depth="3" NCoef="0" IVar="-1" Cut="0.0000000000000000e+00" cType="1" res="9.4859040109440684e-04" rms="4.6918722987174988e-01" purity="5.6878530979156494e-01" nType="-99"/>
          </Node>
        </Node>
      </Node>
    </BinaryTree>
    <BinaryTree type="DecisionTree" boostWeight="1.0000000000000000e+00" itree="23">
      <Node pos="s" depth="0" NCoef="0" IVar="7" Cut="9.6579745411872864e-02" cType="1" res="7.3323482647538185e-03" rms="4.2824786901473999e-01" purity="4.9766945838928223e-01" nType="0">
        <Node pos="l" depth="1" NCoef="0" IVar="8" Cut="5.4228544235229492e-01" cType="1" res="2.9723435640335083e-01" rms="3.1862884759902954e-01" purity="8.6092400550842285e-01" nType="0">
          <Node pos="l" depth="2" NCoef="0" IVar="0" Cut="1.9813261032104492e+01" cType="1" res="3.3851015567779541e-01" rms="2.7017629146575928e-01" purity="9.1061347723007202e-01" nType="0">
            <Node pos="l" depth="3" NCoef="0" IVar="0" Cut="1.3884122848510742e+01" cType="1" res="6.1797391623258591e-02" rms="4.8133978247642517e-01" purity="5.7620370388031006e-01" nType="0">
              <Node pos="l" depth="4" NCoef="0" IVar="-1" Cut="0.0000000000000000e+00" cType="1" res="-2.0133445505052805e-03" rms="4.8486033082008362e-01" purity="3.9609861373901367e-01" nType="-99"/>
              <Node pos="r" depth="4" NCoef="0" IVar="-1" Cut="0.0000000000000000e+00" cType="1" res="3.8289311341941357e-03" rms="4.2933577299118042e-01" purity="7.3776859045028687e-01" nType="-99"/>
            </Node>
            <Node pos="r" depth="3" NCoef="0" IVar="10" Cut="5.6079095602035522e-01" cType="1" res="3.7326633930206299e-01" rms="2.0551726222038269e-01" purity="9.5261657238006592e-01" nType="0">
              <Node pos="l" depth="4" NCoef="0" IVar="-1" Cut="0.0000000000000000e+00" cType="1" res="3.0209321994334459e-03" rms="4.5093676447868347e-01" purity="7.0388484001159668e-01" nType="-99"/>
              <Node pos="r" depth="4" NCoef="0" IVar="-1" Cut="0.0000000000000000e+00" cType="1" res="6.9195833057165146e-03" rms="1.6736829280853271e-01" purity="9.6953964233398438e-01" nType="-99"/>
            </Node>
          </Node>
          <Node pos="r" depth="2" NCoef="0" IVar="-1" Cut="0.0000000000000000e+00" cType="1" res="-4.4975066557526588e-03" rms="4.1641965508460999e-01" purity="2.4869039654731750e-01" nType="-99"/>
        </Node>
        <Node pos="r" depth="1" NCoef="0" IVar="5" Cut="9.3511390686035156e+00" cType="1" res="-3.0020591616630554e-01" rms="2.9413107037544250e-01" purity="1.1231627315282822e-01" nType="0">
          <Node pos="l" depth="2" NCoef="0" IVar="8" Cut="3.4328317642211914e-01" cType="1" res="-3.3151257038116455e-01" rms="2.5081646442413330e-01" purity="7.2985321283340454e-02" nType="0">
            <Node pos="l" depth="3" NCoef="0" IVar="6" Cut="7.3883301019668579e-01" cType="1" res="-2.6066079735755920e-01" rms="3.5510390996932983e-01" purity="1.5879617631435394e-01" nType="0">
              <Node pos="l" depth="4" NCoef="0" IVar="-1" Cut="0.0000000000000000e+00" cType="1" res="-7.0967986248433590e-03" rms="2.9338458180427551e-01" purity="9.8613023757934570e-02" nType="-99"/>
              <Node pos="r" depth="4" NCoef="0" IVar="-1" Cut="0.0000000000000000e+00" cType="1" res="-1.5061338199302554e-03" rms="4.8081180453300476e-01" purity="3.8354864716529846e-01" nType="-99"/>
            </Node>
            <Node pos="r" depth="3" NCoef="0" IVar="5" Cut="5.0697979927062988e+00" cType="1" res="-3.7400296330451965e-01" rms="1.4211776852607727e-01" purity="2.1523838862776756e-02" nType="0">
              <Node pos="l" depth="4" NCoef="0" IVar="-1" Cut="0.0000000000000000e+00" cType="1" res="-9.0565327554941177e-03" rms="1.0659050196409225e-01" purity="1.1670102365314960e-02" nType="-99"/>
              <Node pos="r" depth="4" NCoef="0" IVar="-1" Cut="0.0000000000000000e+00" cType="1" res="-7.4590458534657955e-03" rms="2.8621807694435120e-01" purity="9.3143187463283539e-02" nType="-99"/>
            </Node>
          </Node>
          <Node pos="r" depth="2" NCoef="0" IVar="-1" Cut="0.0000000000000000e+00" cType="1" res="3.1533690635114908e-03" rms="4.5326188206672668e-01" purity="7.0172160863876343e-01" nType="-99"/>
        </Node>
      </Node>
    </BinaryTree>
    <BinaryTree type="DecisionTree" boostWeight="1.0000000000000000e+00" itree="24">
      <Node pos="s" depth="0" NCoef="0" IVar="6" Cut="8.0025815963745117e-01" cType="1" res="8.8660418987274170e-03" rms="4.2557287216186523e-01" purity="4.9958425760269165e-01" nType="0">
        <Node pos="l" depth="1" NCoef="0" IVar="5" Cut="7.7445287704467773e+00" cType="1" res="-2.6886326074600220e-01" rms="3.2394561171531677e-01" purity="1.5039780735969543e-01" nType="0">
          <Node pos="l" depth="2" NCoef="0" IVar="7" Cut="9.6579745411872864e-02" cType="1" res="-3.1863051652908325e-01" rms="2.6550140976905823e-01" purity="8.8400512933731079e-02" nType="0">
            <Node pos="l" depth="3" NCoef="0" IVar="8" Cut="4.7263410687446594e-01" cType="1" res="-1.4358924329280853e-01" rms="4.4943141937255859e-01" purity="3.4415358304977417e-01" nType="0">
              <Node pos="l" depth="4" NCoef="0" IVar="-1" Cut="0.0000000000000000e+00" cType="1" res="-2.5445845676586032e-04" rms="4.8602283000946045e-01" purity="5.0677454471588135e-01" nType="-99"/>
              <Node pos="r" depth="4" NCoef="0" IVar="-1" Cut="0.0000000000000000e+00" cType="1" res="-7.6942471787333488e-03" rms="2.9006063938140869e-01" purity="9.6323102712631226e-02" nType="-99"/>
            </Node>
            <Node pos="r" depth="3" NCoef="0" IVar="8" Cut="2.6865625381469727e-01" cType="1" res="-3.4583660960197449e-01" rms="2.1106967329978943e-01" purity="4.8649642616510391e-02" nType="0">
              <Node pos="l" depth="4" NCoef="0" IVar="-1" Cut="0.0000000000000000e+00" cType="1" res="-6.6232564859092236e-03" rms="3.1670087575912476e-01" purity="1.1621875315904617e-01" nType="-99"/>
              <Node pos="r" depth="4" NCoef="0" IVar="-1" Cut="0.0000000000000000e+00" cType="1" res="-8.8022947311401367e-03" rms="1.3565330207347870e-01" purity="1.9208867102861404e-02" nType="-99"/>
            </Node>
          </Node>
          <Node pos="r" depth="2" NCoef="0" IVar="-1" Cut="0.0000000000000000e+00" cType="1" res="3.5260752774775028e-03" rms="4.3522709608078003e-01" purity="7.2093093395233154e-01" nType="-99"/>
        </Node>
        <Node pos="r" depth="1" NCoef="0" IVar="7" Cut="9.2468403279781342e-02" cType="1" res="3.2132074236869812e-01" rms="2.8705751895904541e-01" purity="8.9243060350418091e-01" nType="0">
          <Node pos="l" depth="2" NCoef="0" IVar="8" Cut="3.6310276389122009e-01" cType="1" res="3.5500010848045349e-01" rms="2.3593449592590332e-01" purity="9.3366122245788574e-01" nType="0">
            <Node pos="l" depth="3" NCoef="0" IVar="10" Cut="6.5008383989334106e-01" cType="1" res="3.7189421057701111e-01" rms="2.0145088434219360e-01" purity="9.5382767915725708e-01" nType="0">
              <Node pos="l" depth="4" NCoef="0" IVar="-1" Cut="0.0000000000000000e+00" cType="1" res="3.6202042829245329e-03" rms="4.2996859550476074e-01" purity="7.4496465921401978e-01" nType="-99"/>
              <Node pos="r" depth="4" NCoef="0" IVar="-1" Cut="0.0000000000000000e+00" cType="1" res="6.8902913480997086e-03" rms="1.6500274837017059e-01" purity="9.6950095891952515e-01" nType="-99"/>
            </Node>
            <Node pos="r" depth="3" NCoef="0" IVar="-1" Cut="0.0000000000000000e+00" cType="1" res="1.7802211223170161e-03" rms="4.6536487340927124e-01" purity="6.2069922685623169e-01" nType="-99"/>
          </Node>
          <Node pos="r" depth="2" NCoef="0" IVar="-1" Cut="0.0000000000000000e+00" cType="1" res="-1.7752340063452721e-03" rms="4.7545385360717773e-01" purity="3.9212629199028015e-01" nType="-99"/>
        </Node>
      </Node>
    </BinaryTree>
    <BinaryTree type="DecisionTree" boostWeight="1.0000000000000000e+00" itree="25">
      <Node pos="s" depth="0" NCoef="0" IVar="7" Cut="7.6133675873279572e-02" cType="1" res="1.1212287470698357e-02" rms="4.2307755351066589e-01" purity="5.0175380706787109e-01" nType="0">
        <Node pos="l" depth="1" NCoef="0" IVar="8" Cut="6.0198658704757690e-01" cType="1" res="3.0578237771987915e-01" rms="3.0051934719085693e-01" purity="8.7820202112197876e-01" nType="0">
          <Node pos="l" depth="2" NCoef="0" IVar="0" Cut="1.9813148498535156e+01" cType="1" res="3.3834740519523621e-01" rms="2.5930184125900269e-01" purity="9.1774207353591919e-01" nType="0">
            <Node pos="l" depth="3" NCoef="0" IVar="1" Cut="3.9105333387851715e-02" cType="1" res="5.4195053875446320e-02" rms="4.8104315996170044e-01" purity="5.7221293449401855e-01" nType="0">
              <Node pos="l" depth="4" NCoef="0" IVar="-1" Cut="0.0000000000000000e+00" cType="1" res="9.4243965577334166e-04" rms="4.8205658793449402e-01" purity="5.6643897294998169e-01" nType="-99"/>
              <Node pos="r" depth="4" NCoef="0" IVar="-1" Cut="0.0000000000000000e+00" cType="1" res="1.1533303186297417e-03" rms="4.7996246814727783e-01" purity="5.7799494266510010e-01" nType="-99"/>
            </Node>
            <Node pos="r" depth="3" NCoef="0" IVar="10" Cut="5.9076923131942749e-01" cType="1" res="3.7340778112411499e-01" rms="1.8918271362781525e-01" purity="9.6037542819976807e-01" nType="0">
              <Node pos="l" depth="4" NCoef="0" IVar="-1" Cut="0.0000000000000000e+00" cType="1" res="3.2412365544587374e-03" rms="4.4435384869575500e-01" purity="7.2265452146530151e-01" nType="-99"/>
              <Node pos="r" depth="4" NCoef="0" IVar="-1" Cut="0.0000000000000000e+00" cType="1" res="6.9339815527200699e-03" rms="1.4747555553913116e-01" purity="9.7671133279800415e-01" nType="-99"/>
            </Node>
          </Node>
          <Node pos="r" depth="2" NCoef="0" IVar="-1" Cut="0.0000000000000000e+00" cType="1" res="-4.8254239372909069e-03" rms="4.0883636474609375e-01" purity="2.3296631872653961e-01" nType="-99"/>
        </Node>
        <Node pos="r" depth="1" NCoef="0" IVar="5" Cut="7.0882482528686523e+00" cType="1" res="-2.7654144167900085e-01" rms="3.1314429640769958e-01" purity="1.3401661813259125e-01" nType="0">
          <Node pos="l" depth="2" NCoef="0" IVar="6" Cut="7.2732633352279663e-01" cType="1" res="-3.2234823703765869e-01" rms="2.5196355581283569e-01" purity="7.5165726244449615e-02" nType="0">
            <Node pos="l" depth="3" NCoef="0" IVar="9" Cut="1.5987623929977417e+00" cType="1" res="-3.5226216912269592e-01" rms="1.8564420938491821e-01" purity="3.6831744015216827e-02" nType="0">
